digraph Tree {
node [shape=box, style="filled, rounded", color="black", fontname=helvetica] ;
edge [fontname=helvetica] ;
0 [label="source <= 0.5\ngini = 0.89\nsamples = 14694\nvalue = [2660, 2435, 170, 2457, 2566, 2699, 2633, 2559, 2416\n2569]\nclass = Neil deGrasse Tyson", fillcolor="#399de500"] ;
1 [label="year <= 2017.5\ngini = 0.78\nsamples = 5730\nvalue = [187, 772, 163, 228, 2566, 2036, 2580, 180, 0, 364]\nclass = Sebastian Ruder", fillcolor="#3c39e501"] ;
0 -> 1 [labeldistance=2.5, labelangle=45, headlabel="True"] ;
2 [label="punc_count <= 2.5\ngini = 0.58\nsamples = 1370\nvalue = [40, 504, 0, 0, 0, 1278, 0, 153, 0, 168]\nclass = Neil deGrasse Tyson", fillcolor="#399de578"] ;
1 -> 2 ;
3 [label="unique_ratio <= 0.22\ngini = 0.36\nsamples = 445\nvalue = [8, 43, 0, 0, 0, 568, 0, 72, 0, 25]\nclass = Neil deGrasse Tyson", fillcolor="#399de5c4"] ;
2 -> 3 ;
4 [label="has_mentions <= 0.5\ngini = 0.44\nsamples = 51\nvalue = [6, 0, 0, 0, 0, 17, 0, 58, 0, 0]\nclass = Kim Kardashian West", fillcolor="#a339e5a3"] ;
3 -> 4 ;
5 [label="year <= 2016.5\ngini = 0.26\nsamples = 41\nvalue = [6, 0, 0, 0, 0, 4, 0, 57, 0, 0]\nclass = Kim Kardashian West", fillcolor="#a339e5d5"] ;
4 -> 5 ;
6 [label="year <= 2015.5\ngini = 0.04\nsamples = 29\nvalue = [0, 0, 0, 0, 0, 1, 0, 48, 0, 0]\nclass = Kim Kardashian West", fillcolor="#a339e5fa"] ;
5 -> 6 ;
7 [label="gini = 0.0\nsamples = 22\nvalue = [0, 0, 0, 0, 0, 0, 0, 38, 0, 0]\nclass = Kim Kardashian West", fillcolor="#a339e5ff"] ;
6 -> 7 ;
8 [label="day_of_year <= 281.5\ngini = 0.17\nsamples = 7\nvalue = [0, 0, 0, 0, 0, 1, 0, 10, 0, 0]\nclass = Kim Kardashian West", fillcolor="#a339e5e6"] ;
6 -> 8 ;
9 [label="gini = 0.0\nsamples = 5\nvalue = [0, 0, 0, 0, 0, 0, 0, 9, 0, 0]\nclass = Kim Kardashian West", fillcolor="#a339e5ff"] ;
8 -> 9 ;
10 [label="word_count <= 11.5\ngini = 0.5\nsamples = 2\nvalue = [0, 0, 0, 0, 0, 1, 0, 1, 0, 0]\nclass = Neil deGrasse Tyson", fillcolor="#399de500"] ;
8 -> 10 ;
11 [label="gini = 0.0\nsamples = 1\nvalue = [0, 0, 0, 0, 0, 1, 0, 0, 0, 0]\nclass = Neil deGrasse Tyson", fillcolor="#399de5ff"] ;
10 -> 11 ;
12 [label="gini = 0.0\nsamples = 1\nvalue = [0, 0, 0, 0, 0, 0, 0, 1, 0, 0]\nclass = Kim Kardashian West", fillcolor="#a339e5ff"] ;
10 -> 12 ;
13 [label="punc_ratio <= 0.01\ngini = 0.61\nsamples = 12\nvalue = [6, 0, 0, 0, 0, 3, 0, 9, 0, 0]\nclass = Kim Kardashian West", fillcolor="#a339e540"] ;
5 -> 13 ;
14 [label="gini = 0.0\nsamples = 2\nvalue = [4, 0, 0, 0, 0, 0, 0, 0, 0, 0]\nclass = Neil deGrasse Tyson", fillcolor="#e58139ff"] ;
13 -> 14 ;
15 [label="punc_ratio <= 0.02\ngini = 0.52\nsamples = 10\nvalue = [2, 0, 0, 0, 0, 3, 0, 9, 0, 0]\nclass = Kim Kardashian West", fillcolor="#a339e58b"] ;
13 -> 15 ;
16 [label="punc_ratio <= 0.01\ngini = 0.64\nsamples = 6\nvalue = [2, 0, 0, 0, 0, 3, 0, 4, 0, 0]\nclass = Kim Kardashian West", fillcolor="#a339e52a"] ;
15 -> 16 ;
17 [label="gini = 0.0\nsamples = 2\nvalue = [0, 0, 0, 0, 0, 0, 0, 4, 0, 0]\nclass = Kim Kardashian West", fillcolor="#a339e5ff"] ;
16 -> 17 ;
18 [label="day_of_year <= 235.0\ngini = 0.48\nsamples = 4\nvalue = [2, 0, 0, 0, 0, 3, 0, 0, 0, 0]\nclass = Neil deGrasse Tyson", fillcolor="#399de555"] ;
16 -> 18 ;
19 [label="gini = 0.0\nsamples = 2\nvalue = [0, 0, 0, 0, 0, 3, 0, 0, 0, 0]\nclass = Neil deGrasse Tyson", fillcolor="#399de5ff"] ;
18 -> 19 ;
20 [label="gini = 0.0\nsamples = 2\nvalue = [2, 0, 0, 0, 0, 0, 0, 0, 0, 0]\nclass = Neil deGrasse Tyson", fillcolor="#e58139ff"] ;
18 -> 20 ;
21 [label="gini = 0.0\nsamples = 4\nvalue = [0, 0, 0, 0, 0, 0, 0, 5, 0, 0]\nclass = Kim Kardashian West", fillcolor="#a339e5ff"] ;
15 -> 21 ;
22 [label="year <= 2015.5\ngini = 0.13\nsamples = 10\nvalue = [0, 0, 0, 0, 0, 13, 0, 1, 0, 0]\nclass = Neil deGrasse Tyson", fillcolor="#399de5eb"] ;
4 -> 22 ;
23 [label="gini = 0.0\nsamples = 1\nvalue = [0, 0, 0, 0, 0, 0, 0, 1, 0, 0]\nclass = Kim Kardashian West", fillcolor="#a339e5ff"] ;
22 -> 23 ;
24 [label="gini = 0.0\nsamples = 9\nvalue = [0, 0, 0, 0, 0, 13, 0, 0, 0, 0]\nclass = Neil deGrasse Tyson", fillcolor="#399de5ff"] ;
22 -> 24 ;
25 [label="year <= 2015.5\ngini = 0.24\nsamples = 394\nvalue = [2, 43, 0, 0, 0, 551, 0, 14, 0, 25]\nclass = Neil deGrasse Tyson", fillcolor="#399de5db"] ;
3 -> 25 ;
26 [label="year <= 2013.5\ngini = 0.26\nsamples = 29\nvalue = [0, 38, 0, 0, 0, 0, 0, 7, 0, 0]\nclass = Cristiano Ronaldo", fillcolor="#e2e539d0"] ;
25 -> 26 ;
27 [label="gini = 0.0\nsamples = 24\nvalue = [0, 37, 0, 0, 0, 0, 0, 0, 0, 0]\nclass = Cristiano Ronaldo", fillcolor="#e2e539ff"] ;
26 -> 27 ;
28 [label="unique_ratio <= 0.35\ngini = 0.22\nsamples = 5\nvalue = [0, 1, 0, 0, 0, 0, 0, 7, 0, 0]\nclass = Kim Kardashian West", fillcolor="#a339e5db"] ;
26 -> 28 ;
29 [label="gini = 0.0\nsamples = 4\nvalue = [0, 0, 0, 0, 0, 0, 0, 7, 0, 0]\nclass = Kim Kardashian West", fillcolor="#a339e5ff"] ;
28 -> 29 ;
30 [label="gini = 0.0\nsamples = 1\nvalue = [0, 1, 0, 0, 0, 0, 0, 0, 0, 0]\nclass = Cristiano Ronaldo", fillcolor="#e2e539ff"] ;
28 -> 30 ;
31 [label="day_of_year <= 15.0\ngini = 0.13\nsamples = 365\nvalue = [2, 5, 0, 0, 0, 551, 0, 7, 0, 25]\nclass = Neil deGrasse Tyson", fillcolor="#399de5ed"] ;
25 -> 31 ;
32 [label="has_mentions <= 0.5\ngini = 0.48\nsamples = 2\nvalue = [0, 3, 0, 0, 0, 2, 0, 0, 0, 0]\nclass = Cristiano Ronaldo", fillcolor="#e2e53955"] ;
31 -> 32 ;
33 [label="gini = 0.0\nsamples = 1\nvalue = [0, 0, 0, 0, 0, 2, 0, 0, 0, 0]\nclass = Neil deGrasse Tyson", fillcolor="#399de5ff"] ;
32 -> 33 ;
34 [label="gini = 0.0\nsamples = 1\nvalue = [0, 3, 0, 0, 0, 0, 0, 0, 0, 0]\nclass = Cristiano Ronaldo", fillcolor="#e2e539ff"] ;
32 -> 34 ;
35 [label="day_of_year <= 314.5\ngini = 0.12\nsamples = 363\nvalue = [2, 2, 0, 0, 0, 549, 0, 7, 0, 25]\nclass = Neil deGrasse Tyson", fillcolor="#399de5ef"] ;
31 -> 35 ;
36 [label="word_count <= 8.5\ngini = 0.1\nsamples = 348\nvalue = [1, 1, 0, 0, 0, 536, 0, 7, 0, 20]\nclass = Neil deGrasse Tyson", fillcolor="#399de5f1"] ;
35 -> 36 ;
37 [label="unique_ratio <= 0.77\ngini = 0.08\nsamples = 328\nvalue = [1, 1, 0, 0, 0, 509, 0, 5, 0, 15]\nclass = Neil deGrasse Tyson", fillcolor="#399de5f4"] ;
36 -> 37 ;
38 [label="punc_ratio <= 0.04\ngini = 0.06\nsamples = 260\nvalue = [0, 1, 0, 0, 0, 412, 0, 5, 0, 6]\nclass = Neil deGrasse Tyson", fillcolor="#399de5f8"] ;
37 -> 38 ;
39 [label="gini = 0.1\nsamples = 130\nvalue = [0, 0, 0, 0, 0, 192, 0, 5, 0, 6]\nclass = Neil deGrasse Tyson", fillcolor="#399de5f1"] ;
38 -> 39 ;
40 [label="gini = 0.01\nsamples = 130\nvalue = [0, 1, 0, 0, 0, 220, 0, 0, 0, 0]\nclass = Neil deGrasse Tyson", fillcolor="#399de5fe"] ;
38 -> 40 ;
41 [label="year <= 2016.5\ngini = 0.17\nsamples = 68\nvalue = [1, 0, 0, 0, 0, 97, 0, 0, 0, 9]\nclass = Neil deGrasse Tyson", fillcolor="#399de5e5"] ;
37 -> 41 ;
42 [label="gini = 0.0\nsamples = 29\nvalue = [0, 0, 0, 0, 0, 42, 0, 0, 0, 0]\nclass = Neil deGrasse Tyson", fillcolor="#399de5ff"] ;
41 -> 42 ;
43 [label="gini = 0.26\nsamples = 39\nvalue = [1, 0, 0, 0, 0, 55, 0, 0, 0, 9]\nclass = Neil deGrasse Tyson", fillcolor="#399de5d1"] ;
41 -> 43 ;
44 [label="day_of_year <= 140.5\ngini = 0.34\nsamples = 20\nvalue = [0, 0, 0, 0, 0, 27, 0, 2, 0, 5]\nclass = Neil deGrasse Tyson", fillcolor="#399de5c1"] ;
36 -> 44 ;
45 [label="word_count <= 10.0\ngini = 0.57\nsamples = 7\nvalue = [0, 0, 0, 0, 0, 6, 0, 1, 0, 5]\nclass = Neil deGrasse Tyson", fillcolor="#399de524"] ;
44 -> 45 ;
46 [label="gini = 0.38\nsamples = 2\nvalue = [0, 0, 0, 0, 0, 0, 0, 1, 0, 3]\nclass = Kim Kardashian West", fillcolor="#e53958aa"] ;
45 -> 46 ;
47 [label="gini = 0.38\nsamples = 5\nvalue = [0, 0, 0, 0, 0, 6, 0, 0, 0, 2]\nclass = Neil deGrasse Tyson", fillcolor="#399de5aa"] ;
45 -> 47 ;
48 [label="unique_ratio <= 0.22\ngini = 0.09\nsamples = 13\nvalue = [0, 0, 0, 0, 0, 21, 0, 1, 0, 0]\nclass = Neil deGrasse Tyson", fillcolor="#399de5f3"] ;
44 -> 48 ;
49 [label="gini = 0.0\nsamples = 1\nvalue = [0, 0, 0, 0, 0, 0, 0, 1, 0, 0]\nclass = Kim Kardashian West", fillcolor="#a339e5ff"] ;
48 -> 49 ;
50 [label="gini = 0.0\nsamples = 12\nvalue = [0, 0, 0, 0, 0, 21, 0, 0, 0, 0]\nclass = Neil deGrasse Tyson", fillcolor="#399de5ff"] ;
48 -> 50 ;
51 [label="punc_ratio <= 0.18\ngini = 0.51\nsamples = 15\nvalue = [1, 1, 0, 0, 0, 13, 0, 0, 0, 5]\nclass = Neil deGrasse Tyson", fillcolor="#399de588"] ;
35 -> 51 ;
52 [label="unique_ratio <= 0.4\ngini = 0.24\nsamples = 12\nvalue = [0, 1, 0, 0, 0, 13, 0, 0, 0, 1]\nclass = Neil deGrasse Tyson", fillcolor="#399de5db"] ;
51 -> 52 ;
53 [label="gini = 0.0\nsamples = 5\nvalue = [0, 0, 0, 0, 0, 7, 0, 0, 0, 0]\nclass = Neil deGrasse Tyson", fillcolor="#399de5ff"] ;
52 -> 53 ;
54 [label="unique_ratio <= 0.6\ngini = 0.41\nsamples = 7\nvalue = [0, 1, 0, 0, 0, 6, 0, 0, 0, 1]\nclass = Neil deGrasse Tyson", fillcolor="#399de5b6"] ;
52 -> 54 ;
55 [label="gini = 0.5\nsamples = 2\nvalue = [0, 1, 0, 0, 0, 0, 0, 0, 0, 1]\nclass = Cristiano Ronaldo", fillcolor="#e2e53900"] ;
54 -> 55 ;
56 [label="gini = 0.0\nsamples = 5\nvalue = [0, 0, 0, 0, 0, 6, 0, 0, 0, 0]\nclass = Neil deGrasse Tyson", fillcolor="#399de5ff"] ;
54 -> 56 ;
57 [label="punc_count <= 1.5\ngini = 0.32\nsamples = 3\nvalue = [1, 0, 0, 0, 0, 0, 0, 0, 0, 4]\nclass = Kim Kardashian West", fillcolor="#e53958bf"] ;
51 -> 57 ;
58 [label="gini = 0.0\nsamples = 1\nvalue = [1, 0, 0, 0, 0, 0, 0, 0, 0, 0]\nclass = Neil deGrasse Tyson", fillcolor="#e58139ff"] ;
57 -> 58 ;
59 [label="gini = 0.0\nsamples = 2\nvalue = [0, 0, 0, 0, 0, 0, 0, 0, 0, 4]\nclass = Kim Kardashian West", fillcolor="#e53958ff"] ;
57 -> 59 ;
60 [label="unique_ratio <= 0.68\ngini = 0.63\nsamples = 925\nvalue = [32, 461, 0, 0, 0, 710, 0, 81, 0, 143]\nclass = Neil deGrasse Tyson", fillcolor="#399de542"] ;
2 -> 60 ;
61 [label="year <= 2015.5\ngini = 0.62\nsamples = 814\nvalue = [32, 359, 0, 0, 0, 672, 0, 81, 0, 113]\nclass = Neil deGrasse Tyson", fillcolor="#399de559"] ;
60 -> 61 ;
62 [label="year <= 2013.5\ngini = 0.49\nsamples = 73\nvalue = [0, 64, 0, 0, 0, 0, 0, 47, 0, 0]\nclass = Cristiano Ronaldo", fillcolor="#e2e53944"] ;
61 -> 62 ;
63 [label="has_mentions <= 0.5\ngini = 0.27\nsamples = 43\nvalue = [0, 58, 0, 0, 0, 0, 0, 11, 0, 0]\nclass = Cristiano Ronaldo", fillcolor="#e2e539cf"] ;
62 -> 63 ;
64 [label="punc_ratio <= 0.04\ngini = 0.47\nsamples = 17\nvalue = [0, 15, 0, 0, 0, 0, 0, 9, 0, 0]\nclass = Cristiano Ronaldo", fillcolor="#e2e53966"] ;
63 -> 64 ;
65 [label="day_of_year <= 318.5\ngini = 0.47\nsamples = 10\nvalue = [0, 5, 0, 0, 0, 0, 0, 8, 0, 0]\nclass = Kim Kardashian West", fillcolor="#a339e560"] ;
64 -> 65 ;
66 [label="gini = 0.0\nsamples = 7\nvalue = [0, 0, 0, 0, 0, 0, 0, 8, 0, 0]\nclass = Kim Kardashian West", fillcolor="#a339e5ff"] ;
65 -> 66 ;
67 [label="gini = 0.0\nsamples = 3\nvalue = [0, 5, 0, 0, 0, 0, 0, 0, 0, 0]\nclass = Cristiano Ronaldo", fillcolor="#e2e539ff"] ;
65 -> 67 ;
68 [label="word_count <= 12.0\ngini = 0.17\nsamples = 7\nvalue = [0, 10, 0, 0, 0, 0, 0, 1, 0, 0]\nclass = Cristiano Ronaldo", fillcolor="#e2e539e6"] ;
64 -> 68 ;
69 [label="gini = 0.0\nsamples = 6\nvalue = [0, 10, 0, 0, 0, 0, 0, 0, 0, 0]\nclass = Cristiano Ronaldo", fillcolor="#e2e539ff"] ;
68 -> 69 ;
70 [label="gini = 0.0\nsamples = 1\nvalue = [0, 0, 0, 0, 0, 0, 0, 1, 0, 0]\nclass = Kim Kardashian West", fillcolor="#a339e5ff"] ;
68 -> 70 ;
71 [label="punc_count <= 6.5\ngini = 0.08\nsamples = 26\nvalue = [0, 43, 0, 0, 0, 0, 0, 2, 0, 0]\nclass = Cristiano Ronaldo", fillcolor="#e2e539f3"] ;
63 -> 71 ;
72 [label="word_count <= 12.5\ngini = 0.04\nsamples = 25\nvalue = [0, 43, 0, 0, 0, 0, 0, 1, 0, 0]\nclass = Cristiano Ronaldo", fillcolor="#e2e539f9"] ;
71 -> 72 ;
73 [label="gini = 0.0\nsamples = 19\nvalue = [0, 33, 0, 0, 0, 0, 0, 0, 0, 0]\nclass = Cristiano Ronaldo", fillcolor="#e2e539ff"] ;
72 -> 73 ;
74 [label="day_of_year <= 348.5\ngini = 0.17\nsamples = 6\nvalue = [0, 10, 0, 0, 0, 0, 0, 1, 0, 0]\nclass = Cristiano Ronaldo", fillcolor="#e2e539e6"] ;
72 -> 74 ;
75 [label="gini = 0.38\nsamples = 2\nvalue = [0, 3, 0, 0, 0, 0, 0, 1, 0, 0]\nclass = Cristiano Ronaldo", fillcolor="#e2e539aa"] ;
74 -> 75 ;
76 [label="gini = 0.0\nsamples = 4\nvalue = [0, 7, 0, 0, 0, 0, 0, 0, 0, 0]\nclass = Cristiano Ronaldo", fillcolor="#e2e539ff"] ;
74 -> 76 ;
77 [label="gini = 0.0\nsamples = 1\nvalue = [0, 0, 0, 0, 0, 0, 0, 1, 0, 0]\nclass = Kim Kardashian West", fillcolor="#a339e5ff"] ;
71 -> 77 ;
78 [label="word_count <= 8.5\ngini = 0.24\nsamples = 30\nvalue = [0, 6, 0, 0, 0, 0, 0, 36, 0, 0]\nclass = Kim Kardashian West", fillcolor="#a339e5d4"] ;
62 -> 78 ;
79 [label="unique_ratio <= 0.34\ngini = 0.44\nsamples = 7\nvalue = [0, 6, 0, 0, 0, 0, 0, 3, 0, 0]\nclass = Cristiano Ronaldo", fillcolor="#e2e5397f"] ;
78 -> 79 ;
80 [label="gini = 0.0\nsamples = 2\nvalue = [0, 0, 0, 0, 0, 0, 0, 3, 0, 0]\nclass = Kim Kardashian West", fillcolor="#a339e5ff"] ;
79 -> 80 ;
81 [label="gini = 0.0\nsamples = 5\nvalue = [0, 6, 0, 0, 0, 0, 0, 0, 0, 0]\nclass = Cristiano Ronaldo", fillcolor="#e2e539ff"] ;
79 -> 81 ;
82 [label="gini = 0.0\nsamples = 23\nvalue = [0, 0, 0, 0, 0, 0, 0, 33, 0, 0]\nclass = Kim Kardashian West", fillcolor="#a339e5ff"] ;
78 -> 82 ;
83 [label="day_of_year <= 301.0\ngini = 0.58\nsamples = 741\nvalue = [32, 295, 0, 0, 0, 672, 0, 34, 0, 113]\nclass = Neil deGrasse Tyson", fillcolor="#399de571"] ;
61 -> 83 ;
84 [label="unique_ratio <= 0.27\ngini = 0.53\nsamples = 620\nvalue = [20, 225, 0, 0, 0, 607, 0, 27, 0, 72]\nclass = Neil deGrasse Tyson", fillcolor="#399de586"] ;
83 -> 84 ;
85 [label="unique_ratio <= 0.22\ngini = 0.62\nsamples = 222\nvalue = [20, 100, 0, 0, 0, 179, 0, 25, 0, 13]\nclass = Neil deGrasse Tyson", fillcolor="#399de555"] ;
84 -> 85 ;
86 [label="unique_ratio <= 0.17\ngini = 0.63\nsamples = 91\nvalue = [16, 18, 0, 0, 0, 81, 0, 23, 0, 6]\nclass = Neil deGrasse Tyson", fillcolor="#399de57a"] ;
85 -> 86 ;
87 [label="day_of_year <= 245.5\ngini = 0.52\nsamples = 10\nvalue = [1, 0, 0, 0, 0, 5, 0, 9, 0, 0]\nclass = Kim Kardashian West", fillcolor="#a339e566"] ;
86 -> 87 ;
88 [label="gini = 0.0\nsamples = 6\nvalue = [0, 0, 0, 0, 0, 0, 0, 9, 0, 0]\nclass = Kim Kardashian West", fillcolor="#a339e5ff"] ;
87 -> 88 ;
89 [label="gini = 0.28\nsamples = 4\nvalue = [1, 0, 0, 0, 0, 5, 0, 0, 0, 0]\nclass = Neil deGrasse Tyson", fillcolor="#399de5cc"] ;
87 -> 89 ;
90 [label="day_of_year <= 111.5\ngini = 0.61\nsamples = 81\nvalue = [15, 18, 0, 0, 0, 76, 0, 14, 0, 6]\nclass = Neil deGrasse Tyson", fillcolor="#399de585"] ;
86 -> 90 ;
91 [label="gini = 0.62\nsamples = 17\nvalue = [0, 10, 0, 0, 0, 10, 0, 4, 0, 0]\nclass = Cristiano Ronaldo", fillcolor="#e2e53900"] ;
90 -> 91 ;
92 [label="gini = 0.57\nsamples = 64\nvalue = [15, 8, 0, 0, 0, 66, 0, 10, 0, 6]\nclass = Neil deGrasse Tyson", fillcolor="#399de590"] ;
90 -> 92 ;
93 [label="punc_ratio <= 0.06\ngini = 0.56\nsamples = 131\nvalue = [4, 82, 0, 0, 0, 98, 0, 2, 0, 7]\nclass = Neil deGrasse Tyson", fillcolor="#399de525"] ;
85 -> 93 ;
94 [label="day_of_year <= 130.5\ngini = 0.56\nsamples = 122\nvalue = [4, 82, 0, 0, 0, 84, 0, 1, 0, 7]\nclass = Neil deGrasse Tyson", fillcolor="#399de505"] ;
93 -> 94 ;
95 [label="gini = 0.46\nsamples = 34\nvalue = [1, 36, 0, 0, 0, 12, 0, 0, 0, 3]\nclass = Cristiano Ronaldo", fillcolor="#e2e53999"] ;
94 -> 95 ;
96 [label="gini = 0.54\nsamples = 88\nvalue = [3, 46, 0, 0, 0, 72, 0, 1, 0, 4]\nclass = Neil deGrasse Tyson", fillcolor="#399de553"] ;
94 -> 96 ;
97 [label="punc_count <= 6.5\ngini = 0.12\nsamples = 9\nvalue = [0, 0, 0, 0, 0, 14, 0, 1, 0, 0]\nclass = Neil deGrasse Tyson", fillcolor="#399de5ed"] ;
93 -> 97 ;
98 [label="gini = 0.0\nsamples = 1\nvalue = [0, 0, 0, 0, 0, 0, 0, 1, 0, 0]\nclass = Kim Kardashian West", fillcolor="#a339e5ff"] ;
97 -> 98 ;
99 [label="gini = 0.0\nsamples = 8\nvalue = [0, 0, 0, 0, 0, 14, 0, 0, 0, 0]\nclass = Neil deGrasse Tyson", fillcolor="#399de5ff"] ;
97 -> 99 ;
100 [label="day_of_year <= 54.0\ngini = 0.46\nsamples = 398\nvalue = [0, 125, 0, 0, 0, 428, 0, 2, 0, 59]\nclass = Neil deGrasse Tyson", fillcolor="#399de59e"] ;
84 -> 100 ;
101 [label="day_of_year <= 24.0\ngini = 0.11\nsamples = 62\nvalue = [0, 6, 0, 0, 0, 95, 0, 0, 0, 0]\nclass = Neil deGrasse Tyson", fillcolor="#399de5ef"] ;
100 -> 101 ;
102 [label="unique_ratio <= 0.39\ngini = 0.41\nsamples = 4\nvalue = [0, 5, 0, 0, 0, 2, 0, 0, 0, 0]\nclass = Cristiano Ronaldo", fillcolor="#e2e53999"] ;
101 -> 102 ;
103 [label="gini = 0.0\nsamples = 1\nvalue = [0, 0, 0, 0, 0, 1, 0, 0, 0, 0]\nclass = Neil deGrasse Tyson", fillcolor="#399de5ff"] ;
102 -> 103 ;
104 [label="gini = 0.28\nsamples = 3\nvalue = [0, 5, 0, 0, 0, 1, 0, 0, 0, 0]\nclass = Cristiano Ronaldo", fillcolor="#e2e539cc"] ;
102 -> 104 ;
105 [label="day_of_year <= 34.5\ngini = 0.02\nsamples = 58\nvalue = [0, 1, 0, 0, 0, 93, 0, 0, 0, 0]\nclass = Neil deGrasse Tyson", fillcolor="#399de5fc"] ;
101 -> 105 ;
106 [label="gini = 0.32\nsamples = 4\nvalue = [0, 1, 0, 0, 0, 4, 0, 0, 0, 0]\nclass = Neil deGrasse Tyson", fillcolor="#399de5bf"] ;
105 -> 106 ;
107 [label="gini = 0.0\nsamples = 54\nvalue = [0, 0, 0, 0, 0, 89, 0, 0, 0, 0]\nclass = Neil deGrasse Tyson", fillcolor="#399de5ff"] ;
105 -> 107 ;
108 [label="year <= 2016.5\ngini = 0.51\nsamples = 336\nvalue = [0, 119, 0, 0, 0, 333, 0, 2, 0, 59]\nclass = Neil deGrasse Tyson", fillcolor="#399de58b"] ;
100 -> 108 ;
109 [label="day_of_year <= 251.5\ngini = 0.46\nsamples = 121\nvalue = [0, 58, 0, 0, 0, 115, 0, 2, 0, 0]\nclass = Neil deGrasse Tyson", fillcolor="#399de57c"] ;
108 -> 109 ;
110 [label="gini = 0.48\nsamples = 60\nvalue = [0, 55, 0, 0, 0, 29, 0, 2, 0, 0]\nclass = Cristiano Ronaldo", fillcolor="#e2e53974"] ;
109 -> 110 ;
111 [label="gini = 0.07\nsamples = 61\nvalue = [0, 3, 0, 0, 0, 86, 0, 0, 0, 0]\nclass = Neil deGrasse Tyson", fillcolor="#399de5f6"] ;
109 -> 111 ;
112 [label="punc_count <= 3.5\ngini = 0.52\nsamples = 215\nvalue = [0, 61, 0, 0, 0, 218, 0, 0, 0, 59]\nclass = Neil deGrasse Tyson", fillcolor="#399de591"] ;
108 -> 112 ;
113 [label="gini = 0.48\nsamples = 96\nvalue = [0, 37, 0, 0, 0, 104, 0, 0, 0, 13]\nclass = Neil deGrasse Tyson", fillcolor="#399de592"] ;
112 -> 113 ;
114 [label="gini = 0.54\nsamples = 119\nvalue = [0, 24, 0, 0, 0, 114, 0, 0, 0, 46]\nclass = Neil deGrasse Tyson", fillcolor="#399de57e"] ;
112 -> 114 ;
115 [label="year <= 2016.5\ngini = 0.71\nsamples = 121\nvalue = [12, 70, 0, 0, 0, 65, 0, 7, 0, 41]\nclass = Cristiano Ronaldo", fillcolor="#e2e5390a"] ;
83 -> 115 ;
116 [label="unique_ratio <= 0.2\ngini = 0.54\nsamples = 50\nvalue = [0, 43, 0, 0, 0, 28, 0, 5, 0, 0]\nclass = Cristiano Ronaldo", fillcolor="#e2e53950"] ;
115 -> 116 ;
117 [label="day_of_year <= 311.0\ngini = 0.24\nsamples = 5\nvalue = [0, 1, 0, 0, 0, 6, 0, 0, 0, 0]\nclass = Neil deGrasse Tyson", fillcolor="#399de5d4"] ;
116 -> 117 ;
118 [label="gini = 0.0\nsamples = 1\nvalue = [0, 1, 0, 0, 0, 0, 0, 0, 0, 0]\nclass = Cristiano Ronaldo", fillcolor="#e2e539ff"] ;
117 -> 118 ;
119 [label="gini = 0.0\nsamples = 4\nvalue = [0, 0, 0, 0, 0, 6, 0, 0, 0, 0]\nclass = Neil deGrasse Tyson", fillcolor="#399de5ff"] ;
117 -> 119 ;
120 [label="word_count <= 11.5\ngini = 0.52\nsamples = 45\nvalue = [0, 42, 0, 0, 0, 22, 0, 5, 0, 0]\nclass = Cristiano Ronaldo", fillcolor="#e2e5396d"] ;
116 -> 120 ;
121 [label="day_of_year <= 309.5\ngini = 0.56\nsamples = 39\nvalue = [0, 33, 0, 0, 0, 22, 0, 5, 0, 0]\nclass = Cristiano Ronaldo", fillcolor="#e2e5394a"] ;
120 -> 121 ;
122 [label="gini = 0.11\nsamples = 9\nvalue = [0, 16, 0, 0, 0, 1, 0, 0, 0, 0]\nclass = Cristiano Ronaldo", fillcolor="#e2e539ef"] ;
121 -> 122 ;
123 [label="gini = 0.59\nsamples = 30\nvalue = [0, 17, 0, 0, 0, 21, 0, 5, 0, 0]\nclass = Neil deGrasse Tyson", fillcolor="#399de527"] ;
121 -> 123 ;
124 [label="gini = 0.0\nsamples = 6\nvalue = [0, 9, 0, 0, 0, 0, 0, 0, 0, 0]\nclass = Cristiano Ronaldo", fillcolor="#e2e539ff"] ;
120 -> 124 ;
125 [label="unique_ratio <= 0.31\ngini = 0.72\nsamples = 71\nvalue = [12, 27, 0, 0, 0, 37, 0, 2, 0, 41]\nclass = Kim Kardashian West", fillcolor="#e539580c"] ;
115 -> 125 ;
126 [label="unique_ratio <= 0.21\ngini = 0.69\nsamples = 38\nvalue = [12, 7, 0, 0, 0, 31, 0, 2, 0, 15]\nclass = Neil deGrasse Tyson", fillcolor="#399de54e"] ;
125 -> 126 ;
127 [label="day_of_year <= 359.5\ngini = 0.7\nsamples = 14\nvalue = [11, 2, 0, 0, 0, 3, 0, 2, 0, 8]\nclass = Neil deGrasse Tyson", fillcolor="#e581392a"] ;
126 -> 127 ;
128 [label="gini = 0.72\nsamples = 9\nvalue = [3, 2, 0, 0, 0, 3, 0, 2, 0, 8]\nclass = Kim Kardashian West", fillcolor="#e5395855"] ;
127 -> 128 ;
129 [label="gini = 0.0\nsamples = 5\nvalue = [8, 0, 0, 0, 0, 0, 0, 0, 0, 0]\nclass = Neil deGrasse Tyson", fillcolor="#e58139ff"] ;
127 -> 129 ;
130 [label="punc_count <= 7.5\ngini = 0.49\nsamples = 24\nvalue = [1, 5, 0, 0, 0, 28, 0, 0, 0, 7]\nclass = Neil deGrasse Tyson", fillcolor="#399de59e"] ;
126 -> 130 ;
131 [label="gini = 0.43\nsamples = 23\nvalue = [1, 5, 0, 0, 0, 28, 0, 0, 0, 4]\nclass = Neil deGrasse Tyson", fillcolor="#399de5b2"] ;
130 -> 131 ;
132 [label="gini = 0.0\nsamples = 1\nvalue = [0, 0, 0, 0, 0, 0, 0, 0, 0, 3]\nclass = Kim Kardashian West", fillcolor="#e53958ff"] ;
130 -> 132 ;
133 [label="punc_count <= 4.5\ngini = 0.59\nsamples = 33\nvalue = [0, 20, 0, 0, 0, 6, 0, 0, 0, 26]\nclass = Kim Kardashian West", fillcolor="#e5395830"] ;
125 -> 133 ;
134 [label="punc_ratio <= 0.09\ngini = 0.61\nsamples = 26\nvalue = [0, 20, 0, 0, 0, 6, 0, 0, 0, 15]\nclass = Cristiano Ronaldo", fillcolor="#e2e53931"] ;
133 -> 134 ;
135 [label="gini = 0.56\nsamples = 20\nvalue = [0, 19, 0, 0, 0, 5, 0, 0, 0, 8]\nclass = Cristiano Ronaldo", fillcolor="#e2e53975"] ;
134 -> 135 ;
136 [label="gini = 0.37\nsamples = 6\nvalue = [0, 1, 0, 0, 0, 1, 0, 0, 0, 7]\nclass = Kim Kardashian West", fillcolor="#e53958bf"] ;
134 -> 136 ;
137 [label="gini = 0.0\nsamples = 7\nvalue = [0, 0, 0, 0, 0, 0, 0, 0, 0, 11]\nclass = Kim Kardashian West", fillcolor="#e53958ff"] ;
133 -> 137 ;
138 [label="punc_ratio <= 0.09\ngini = 0.56\nsamples = 111\nvalue = [0, 102, 0, 0, 0, 38, 0, 0, 0, 30]\nclass = Cristiano Ronaldo", fillcolor="#e2e5397c"] ;
60 -> 138 ;
139 [label="gini = 0.0\nsamples = 15\nvalue = [0, 25, 0, 0, 0, 0, 0, 0, 0, 0]\nclass = Cristiano Ronaldo", fillcolor="#e2e539ff"] ;
138 -> 139 ;
140 [label="year <= 2016.5\ngini = 0.61\nsamples = 96\nvalue = [0, 77, 0, 0, 0, 38, 0, 0, 0, 30]\nclass = Cristiano Ronaldo", fillcolor="#e2e5395d"] ;
138 -> 140 ;
141 [label="day_of_year <= 199.0\ngini = 0.42\nsamples = 31\nvalue = [0, 32, 0, 0, 0, 14, 0, 0, 0, 0]\nclass = Cristiano Ronaldo", fillcolor="#e2e5398f"] ;
140 -> 141 ;
142 [label="gini = 0.0\nsamples = 15\nvalue = [0, 18, 0, 0, 0, 0, 0, 0, 0, 0]\nclass = Cristiano Ronaldo", fillcolor="#e2e539ff"] ;
141 -> 142 ;
143 [label="punc_ratio <= 0.12\ngini = 0.5\nsamples = 16\nvalue = [0, 14, 0, 0, 0, 14, 0, 0, 0, 0]\nclass = Cristiano Ronaldo", fillcolor="#e2e53900"] ;
141 -> 143 ;
144 [label="punc_ratio <= 0.1\ngini = 0.48\nsamples = 13\nvalue = [0, 14, 0, 0, 0, 9, 0, 0, 0, 0]\nclass = Cristiano Ronaldo", fillcolor="#e2e5395b"] ;
143 -> 144 ;
145 [label="gini = 0.0\nsamples = 2\nvalue = [0, 4, 0, 0, 0, 0, 0, 0, 0, 0]\nclass = Cristiano Ronaldo", fillcolor="#e2e539ff"] ;
144 -> 145 ;
146 [label="unique_ratio <= 0.7\ngini = 0.5\nsamples = 11\nvalue = [0, 10, 0, 0, 0, 9, 0, 0, 0, 0]\nclass = Cristiano Ronaldo", fillcolor="#e2e53919"] ;
144 -> 146 ;
147 [label="gini = 0.28\nsamples = 3\nvalue = [0, 5, 0, 0, 0, 1, 0, 0, 0, 0]\nclass = Cristiano Ronaldo", fillcolor="#e2e539cc"] ;
146 -> 147 ;
148 [label="gini = 0.47\nsamples = 8\nvalue = [0, 5, 0, 0, 0, 8, 0, 0, 0, 0]\nclass = Neil deGrasse Tyson", fillcolor="#399de560"] ;
146 -> 148 ;
149 [label="gini = 0.0\nsamples = 3\nvalue = [0, 0, 0, 0, 0, 5, 0, 0, 0, 0]\nclass = Neil deGrasse Tyson", fillcolor="#399de5ff"] ;
143 -> 149 ;
150 [label="day_of_year <= 166.0\ngini = 0.64\nsamples = 65\nvalue = [0, 45, 0, 0, 0, 24, 0, 0, 0, 30]\nclass = Cristiano Ronaldo", fillcolor="#e2e53937"] ;
140 -> 150 ;
151 [label="day_of_year <= 37.0\ngini = 0.52\nsamples = 28\nvalue = [0, 21, 0, 0, 0, 20, 0, 0, 0, 1]\nclass = Cristiano Ronaldo", fillcolor="#e2e5390c"] ;
150 -> 151 ;
152 [label="punc_ratio <= 0.12\ngini = 0.22\nsamples = 5\nvalue = [0, 7, 0, 0, 0, 1, 0, 0, 0, 0]\nclass = Cristiano Ronaldo", fillcolor="#e2e539db"] ;
151 -> 152 ;
153 [label="gini = 0.0\nsamples = 4\nvalue = [0, 7, 0, 0, 0, 0, 0, 0, 0, 0]\nclass = Cristiano Ronaldo", fillcolor="#e2e539ff"] ;
152 -> 153 ;
154 [label="gini = 0.0\nsamples = 1\nvalue = [0, 0, 0, 0, 0, 1, 0, 0, 0, 0]\nclass = Neil deGrasse Tyson", fillcolor="#399de5ff"] ;
152 -> 154 ;
155 [label="word_count <= 2.5\ngini = 0.52\nsamples = 23\nvalue = [0, 14, 0, 0, 0, 19, 0, 0, 0, 1]\nclass = Neil deGrasse Tyson", fillcolor="#399de540"] ;
151 -> 155 ;
156 [label="punc_ratio <= 0.12\ngini = 0.49\nsamples = 22\nvalue = [0, 14, 0, 0, 0, 19, 0, 0, 0, 0]\nclass = Neil deGrasse Tyson", fillcolor="#399de543"] ;
155 -> 156 ;
157 [label="gini = 0.47\nsamples = 20\nvalue = [0, 12, 0, 0, 0, 19, 0, 0, 0, 0]\nclass = Neil deGrasse Tyson", fillcolor="#399de55e"] ;
156 -> 157 ;
158 [label="gini = 0.0\nsamples = 2\nvalue = [0, 2, 0, 0, 0, 0, 0, 0, 0, 0]\nclass = Cristiano Ronaldo", fillcolor="#e2e539ff"] ;
156 -> 158 ;
159 [label="gini = 0.0\nsamples = 1\nvalue = [0, 0, 0, 0, 0, 0, 0, 0, 0, 1]\nclass = Kim Kardashian West", fillcolor="#e53958ff"] ;
155 -> 159 ;
160 [label="day_of_year <= 254.5\ngini = 0.56\nsamples = 37\nvalue = [0, 24, 0, 0, 0, 4, 0, 0, 0, 29]\nclass = Kim Kardashian West", fillcolor="#e5395827"] ;
150 -> 160 ;
161 [label="punc_ratio <= 0.11\ngini = 0.29\nsamples = 15\nvalue = [0, 4, 0, 0, 0, 0, 0, 0, 0, 19]\nclass = Kim Kardashian West", fillcolor="#e53958c9"] ;
160 -> 161 ;
162 [label="unique_ratio <= 0.76\ngini = 0.5\nsamples = 3\nvalue = [0, 2, 0, 0, 0, 0, 0, 0, 0, 2]\nclass = Cristiano Ronaldo", fillcolor="#e2e53900"] ;
161 -> 162 ;
163 [label="gini = 0.0\nsamples = 1\nvalue = [0, 0, 0, 0, 0, 0, 0, 0, 0, 2]\nclass = Kim Kardashian West", fillcolor="#e53958ff"] ;
162 -> 163 ;
164 [label="gini = 0.0\nsamples = 2\nvalue = [0, 2, 0, 0, 0, 0, 0, 0, 0, 0]\nclass = Cristiano Ronaldo", fillcolor="#e2e539ff"] ;
162 -> 164 ;
165 [label="day_of_year <= 226.5\ngini = 0.19\nsamples = 12\nvalue = [0, 2, 0, 0, 0, 0, 0, 0, 0, 17]\nclass = Kim Kardashian West", fillcolor="#e53958e1"] ;
161 -> 165 ;
166 [label="gini = 0.0\nsamples = 6\nvalue = [0, 0, 0, 0, 0, 0, 0, 0, 0, 11]\nclass = Kim Kardashian West", fillcolor="#e53958ff"] ;
165 -> 166 ;
167 [label="gini = 0.38\nsamples = 6\nvalue = [0, 2, 0, 0, 0, 0, 0, 0, 0, 6]\nclass = Kim Kardashian West", fillcolor="#e53958aa"] ;
165 -> 167 ;
168 [label="day_of_year <= 348.0\ngini = 0.55\nsamples = 22\nvalue = [0, 20, 0, 0, 0, 4, 0, 0, 0, 10]\nclass = Cristiano Ronaldo", fillcolor="#e2e5396a"] ;
160 -> 168 ;
169 [label="unique_ratio <= 0.71\ngini = 0.44\nsamples = 17\nvalue = [0, 20, 0, 0, 0, 2, 0, 0, 0, 6]\nclass = Cristiano Ronaldo", fillcolor="#e2e539a2"] ;
168 -> 169 ;
170 [label="gini = 0.32\nsamples = 3\nvalue = [0, 1, 0, 0, 0, 0, 0, 0, 0, 4]\nclass = Kim Kardashian West", fillcolor="#e53958bf"] ;
169 -> 170 ;
171 [label="gini = 0.3\nsamples = 14\nvalue = [0, 19, 0, 0, 0, 2, 0, 0, 0, 2]\nclass = Cristiano Ronaldo", fillcolor="#e2e539ce"] ;
169 -> 171 ;
172 [label="punc_ratio <= 0.11\ngini = 0.44\nsamples = 5\nvalue = [0, 0, 0, 0, 0, 2, 0, 0, 0, 4]\nclass = Kim Kardashian West", fillcolor="#e539587f"] ;
168 -> 172 ;
173 [label="gini = 0.0\nsamples = 1\nvalue = [0, 0, 0, 0, 0, 1, 0, 0, 0, 0]\nclass = Neil deGrasse Tyson", fillcolor="#399de5ff"] ;
172 -> 173 ;
174 [label="gini = 0.32\nsamples = 4\nvalue = [0, 0, 0, 0, 0, 1, 0, 0, 0, 4]\nclass = Kim Kardashian West", fillcolor="#e53958bf"] ;
172 -> 174 ;
175 [label="punc_count <= 2.5\ngini = 0.71\nsamples = 4360\nvalue = [147, 268, 163, 228, 2566, 758, 2580, 27, 0, 196]\nclass = Sebastian Ruder", fillcolor="#3c39e501"] ;
1 -> 175 ;
176 [label="word_count <= 1.5\ngini = 0.59\nsamples = 1587\nvalue = [15, 0, 49, 46, 1427, 172, 775, 9, 0, 68]\nclass = KATY PERRY", fillcolor="#39e5c55d"] ;
175 -> 176 ;
177 [label="punc_ratio <= 0.09\ngini = 0.55\nsamples = 318\nvalue = [3, 0, 13, 7, 119, 12, 337, 1, 0, 44]\nclass = Sebastian Ruder", fillcolor="#3c39e585"] ;
176 -> 177 ;
178 [label="has_mentions <= 0.5\ngini = 0.69\nsamples = 32\nvalue = [0, 0, 0, 2, 21, 8, 9, 1, 0, 3]\nclass = KATY PERRY", fillcolor="#39e5c557"] ;
177 -> 178 ;
179 [label="year <= 2018.5\ngini = 0.5\nsamples = 18\nvalue = [0, 0, 0, 0, 15, 8, 0, 1, 0, 0]\nclass = KATY PERRY", fillcolor="#39e5c570"] ;
178 -> 179 ;
180 [label="day_of_year <= 242.0\ngini = 0.54\nsamples = 8\nvalue = [0, 0, 0, 0, 4, 7, 0, 1, 0, 0]\nclass = Neil deGrasse Tyson", fillcolor="#399de560"] ;
179 -> 180 ;
181 [label="gini = 0.0\nsamples = 4\nvalue = [0, 0, 0, 0, 0, 7, 0, 0, 0, 0]\nclass = Neil deGrasse Tyson", fillcolor="#399de5ff"] ;
180 -> 181 ;
182 [label="unique_ratio <= 0.66\ngini = 0.32\nsamples = 4\nvalue = [0, 0, 0, 0, 4, 0, 0, 1, 0, 0]\nclass = KATY PERRY", fillcolor="#39e5c5bf"] ;
180 -> 182 ;
183 [label="gini = 0.0\nsamples = 1\nvalue = [0, 0, 0, 0, 0, 0, 0, 1, 0, 0]\nclass = Kim Kardashian West", fillcolor="#a339e5ff"] ;
182 -> 183 ;
184 [label="gini = 0.0\nsamples = 3\nvalue = [0, 0, 0, 0, 4, 0, 0, 0, 0, 0]\nclass = KATY PERRY", fillcolor="#39e5c5ff"] ;
182 -> 184 ;
185 [label="day_of_year <= 124.0\ngini = 0.15\nsamples = 10\nvalue = [0, 0, 0, 0, 11, 1, 0, 0, 0, 0]\nclass = KATY PERRY", fillcolor="#39e5c5e8"] ;
179 -> 185 ;
186 [label="gini = 0.0\nsamples = 6\nvalue = [0, 0, 0, 0, 8, 0, 0, 0, 0, 0]\nclass = KATY PERRY", fillcolor="#39e5c5ff"] ;
185 -> 186 ;
187 [label="day_of_year <= 161.0\ngini = 0.38\nsamples = 4\nvalue = [0, 0, 0, 0, 3, 1, 0, 0, 0, 0]\nclass = KATY PERRY", fillcolor="#39e5c5aa"] ;
185 -> 187 ;
188 [label="gini = 0.0\nsamples = 1\nvalue = [0, 0, 0, 0, 0, 1, 0, 0, 0, 0]\nclass = Neil deGrasse Tyson", fillcolor="#399de5ff"] ;
187 -> 188 ;
189 [label="gini = 0.0\nsamples = 3\nvalue = [0, 0, 0, 0, 3, 0, 0, 0, 0, 0]\nclass = KATY PERRY", fillcolor="#39e5c5ff"] ;
187 -> 189 ;
190 [label="unique_ratio <= 0.96\ngini = 0.68\nsamples = 14\nvalue = [0, 0, 0, 2, 6, 0, 9, 0, 0, 3]\nclass = Sebastian Ruder", fillcolor="#3c39e537"] ;
178 -> 190 ;
191 [label="year <= 2018.5\ngini = 0.49\nsamples = 7\nvalue = [0, 0, 0, 2, 6, 0, 0, 0, 0, 1]\nclass = KATY PERRY", fillcolor="#39e5c592"] ;
190 -> 191 ;
192 [label="gini = 0.0\nsamples = 1\nvalue = [0, 0, 0, 0, 0, 0, 0, 0, 0, 1]\nclass = Kim Kardashian West", fillcolor="#e53958ff"] ;
191 -> 192 ;
193 [label="unique_ratio <= 0.65\ngini = 0.38\nsamples = 6\nvalue = [0, 0, 0, 2, 6, 0, 0, 0, 0, 0]\nclass = KATY PERRY", fillcolor="#39e5c5aa"] ;
191 -> 193 ;
194 [label="gini = 0.0\nsamples = 3\nvalue = [0, 0, 0, 0, 4, 0, 0, 0, 0, 0]\nclass = KATY PERRY", fillcolor="#39e5c5ff"] ;
193 -> 194 ;
195 [label="day_of_year <= 180.0\ngini = 0.5\nsamples = 3\nvalue = [0, 0, 0, 2, 2, 0, 0, 0, 0, 0]\nclass = Sebastian Ruder", fillcolor="#39e55e00"] ;
193 -> 195 ;
196 [label="gini = 0.0\nsamples = 2\nvalue = [0, 0, 0, 0, 2, 0, 0, 0, 0, 0]\nclass = KATY PERRY", fillcolor="#39e5c5ff"] ;
195 -> 196 ;
197 [label="gini = 0.0\nsamples = 1\nvalue = [0, 0, 0, 2, 0, 0, 0, 0, 0, 0]\nclass = Sebastian Ruder", fillcolor="#39e55eff"] ;
195 -> 197 ;
198 [label="day_of_year <= 177.0\ngini = 0.3\nsamples = 7\nvalue = [0, 0, 0, 0, 0, 0, 9, 0, 0, 2]\nclass = Sebastian Ruder", fillcolor="#3c39e5c6"] ;
190 -> 198 ;
199 [label="day_of_year <= 153.5\ngini = 0.48\nsamples = 3\nvalue = [0, 0, 0, 0, 0, 0, 3, 0, 0, 2]\nclass = Sebastian Ruder", fillcolor="#3c39e555"] ;
198 -> 199 ;
200 [label="gini = 0.0\nsamples = 2\nvalue = [0, 0, 0, 0, 0, 0, 3, 0, 0, 0]\nclass = Sebastian Ruder", fillcolor="#3c39e5ff"] ;
199 -> 200 ;
201 [label="gini = 0.0\nsamples = 1\nvalue = [0, 0, 0, 0, 0, 0, 0, 0, 0, 2]\nclass = Kim Kardashian West", fillcolor="#e53958ff"] ;
199 -> 201 ;
202 [label="gini = 0.0\nsamples = 4\nvalue = [0, 0, 0, 0, 0, 0, 6, 0, 0, 0]\nclass = Sebastian Ruder", fillcolor="#3c39e5ff"] ;
198 -> 202 ;
203 [label="day_of_year <= 169.5\ngini = 0.51\nsamples = 286\nvalue = [3, 0, 13, 5, 98, 4, 328, 0, 0, 41]\nclass = Sebastian Ruder", fillcolor="#3c39e595"] ;
177 -> 203 ;
204 [label="day_of_year <= 32.0\ngini = 0.64\nsamples = 93\nvalue = [3, 0, 0, 3, 44, 4, 86, 0, 0, 28]\nclass = Sebastian Ruder", fillcolor="#3c39e556"] ;
203 -> 204 ;
205 [label="day_of_year <= 11.5\ngini = 0.38\nsamples = 13\nvalue = [0, 0, 0, 3, 2, 0, 17, 0, 0, 0]\nclass = Sebastian Ruder", fillcolor="#3c39e5bc"] ;
204 -> 205 ;
206 [label="unique_ratio <= 0.85\ngini = 0.61\nsamples = 3\nvalue = [0, 0, 0, 3, 2, 0, 1, 0, 0, 0]\nclass = Sebastian Ruder", fillcolor="#39e55e40"] ;
205 -> 206 ;
207 [label="gini = 0.0\nsamples = 1\nvalue = [0, 0, 0, 3, 0, 0, 0, 0, 0, 0]\nclass = Sebastian Ruder", fillcolor="#39e55eff"] ;
206 -> 207 ;
208 [label="unique_ratio <= 0.96\ngini = 0.44\nsamples = 2\nvalue = [0, 0, 0, 0, 2, 0, 1, 0, 0, 0]\nclass = KATY PERRY", fillcolor="#39e5c57f"] ;
206 -> 208 ;
209 [label="gini = 0.0\nsamples = 1\nvalue = [0, 0, 0, 0, 0, 0, 1, 0, 0, 0]\nclass = Sebastian Ruder", fillcolor="#3c39e5ff"] ;
208 -> 209 ;
210 [label="gini = 0.0\nsamples = 1\nvalue = [0, 0, 0, 0, 2, 0, 0, 0, 0, 0]\nclass = KATY PERRY", fillcolor="#39e5c5ff"] ;
208 -> 210 ;
211 [label="gini = 0.0\nsamples = 10\nvalue = [0, 0, 0, 0, 0, 0, 16, 0, 0, 0]\nclass = Sebastian Ruder", fillcolor="#3c39e5ff"] ;
205 -> 211 ;
212 [label="day_of_year <= 79.5\ngini = 0.66\nsamples = 80\nvalue = [3, 0, 0, 0, 42, 4, 69, 0, 0, 28]\nclass = Sebastian Ruder", fillcolor="#3c39e542"] ;
204 -> 212 ;
213 [label="year <= 2018.5\ngini = 0.68\nsamples = 22\nvalue = [0, 0, 0, 0, 19, 4, 12, 0, 0, 7]\nclass = KATY PERRY", fillcolor="#39e5c53c"] ;
212 -> 213 ;
214 [label="unique_ratio <= 0.81\ngini = 0.46\nsamples = 5\nvalue = [0, 0, 0, 0, 0, 4, 0, 0, 0, 7]\nclass = Kim Kardashian West", fillcolor="#e539586d"] ;
213 -> 214 ;
215 [label="gini = 0.0\nsamples = 1\nvalue = [0, 0, 0, 0, 0, 2, 0, 0, 0, 0]\nclass = Neil deGrasse Tyson", fillcolor="#399de5ff"] ;
214 -> 215 ;
216 [label="gini = 0.35\nsamples = 4\nvalue = [0, 0, 0, 0, 0, 2, 0, 0, 0, 7]\nclass = Kim Kardashian West", fillcolor="#e53958b6"] ;
214 -> 216 ;
217 [label="unique_ratio <= 0.96\ngini = 0.47\nsamples = 17\nvalue = [0, 0, 0, 0, 19, 0, 12, 0, 0, 0]\nclass = KATY PERRY", fillcolor="#39e5c55e"] ;
213 -> 217 ;
218 [label="gini = 0.43\nsamples = 14\nvalue = [0, 0, 0, 0, 18, 0, 8, 0, 0, 0]\nclass = KATY PERRY", fillcolor="#39e5c58e"] ;
217 -> 218 ;
219 [label="gini = 0.32\nsamples = 3\nvalue = [0, 0, 0, 0, 1, 0, 4, 0, 0, 0]\nclass = Sebastian Ruder", fillcolor="#3c39e5bf"] ;
217 -> 219 ;
220 [label="year <= 2018.5\ngini = 0.61\nsamples = 58\nvalue = [3, 0, 0, 0, 23, 0, 57, 0, 0, 21]\nclass = Sebastian Ruder", fillcolor="#3c39e56b"] ;
212 -> 220 ;
221 [label="day_of_year <= 163.0\ngini = 0.46\nsamples = 9\nvalue = [3, 0, 0, 0, 0, 0, 3, 0, 0, 14]\nclass = Kim Kardashian West", fillcolor="#e53958a5"] ;
220 -> 221 ;
222 [label="gini = 0.0\nsamples = 5\nvalue = [0, 0, 0, 0, 0, 0, 0, 0, 0, 13]\nclass = Kim Kardashian West", fillcolor="#e53958ff"] ;
221 -> 222 ;
223 [label="gini = 0.61\nsamples = 4\nvalue = [3, 0, 0, 0, 0, 0, 3, 0, 0, 1]\nclass = Neil deGrasse Tyson", fillcolor="#e5813900"] ;
221 -> 223 ;
224 [label="day_of_year <= 135.0\ngini = 0.5\nsamples = 49\nvalue = [0, 0, 0, 0, 23, 0, 54, 0, 0, 7]\nclass = Sebastian Ruder", fillcolor="#3c39e582"] ;
220 -> 224 ;
225 [label="gini = 0.41\nsamples = 37\nvalue = [0, 0, 0, 0, 9, 0, 47, 0, 0, 7]\nclass = Sebastian Ruder", fillcolor="#3c39e5b3"] ;
224 -> 225 ;
226 [label="gini = 0.44\nsamples = 12\nvalue = [0, 0, 0, 0, 14, 0, 7, 0, 0, 0]\nclass = KATY PERRY", fillcolor="#39e5c57f"] ;
224 -> 226 ;
227 [label="day_of_year <= 352.5\ngini = 0.41\nsamples = 193\nvalue = [0, 0, 13, 2, 54, 0, 242, 0, 0, 13]\nclass = Sebastian Ruder", fillcolor="#3c39e5b2"] ;
203 -> 227 ;
228 [label="year <= 2018.5\ngini = 0.38\nsamples = 184\nvalue = [0, 0, 13, 2, 43, 0, 238, 0, 0, 13]\nclass = Sebastian Ruder", fillcolor="#3c39e5bb"] ;
227 -> 228 ;
229 [label="punc_ratio <= 0.37\ngini = 0.22\nsamples = 115\nvalue = [0, 0, 0, 2, 12, 0, 172, 0, 0, 10]\nclass = Sebastian Ruder", fillcolor="#3c39e5de"] ;
228 -> 229 ;
230 [label="day_of_year <= 306.5\ngini = 0.19\nsamples = 114\nvalue = [0, 0, 0, 2, 12, 0, 172, 0, 0, 6]\nclass = Sebastian Ruder", fillcolor="#3c39e5e3"] ;
229 -> 230 ;
231 [label="gini = 0.11\nsamples = 81\nvalue = [0, 0, 0, 2, 0, 0, 133, 0, 0, 6]\nclass = Sebastian Ruder", fillcolor="#3c39e5f0"] ;
230 -> 231 ;
232 [label="gini = 0.36\nsamples = 33\nvalue = [0, 0, 0, 0, 12, 0, 39, 0, 0, 0]\nclass = Sebastian Ruder", fillcolor="#3c39e5b1"] ;
230 -> 232 ;
233 [label="gini = 0.0\nsamples = 1\nvalue = [0, 0, 0, 0, 0, 0, 0, 0, 0, 4]\nclass = Kim Kardashian West", fillcolor="#e53958ff"] ;
229 -> 233 ;
234 [label="day_of_year <= 270.0\ngini = 0.57\nsamples = 69\nvalue = [0, 0, 13, 0, 31, 0, 66, 0, 0, 3]\nclass = Sebastian Ruder", fillcolor="#3c39e56d"] ;
228 -> 234 ;
235 [label="punc_ratio <= 0.28\ngini = 0.46\nsamples = 59\nvalue = [0, 0, 0, 0, 28, 0, 65, 0, 0, 3]\nclass = Sebastian Ruder", fillcolor="#3c39e58b"] ;
234 -> 235 ;
236 [label="gini = 0.48\nsamples = 53\nvalue = [0, 0, 0, 0, 28, 0, 55, 0, 0, 3]\nclass = Sebastian Ruder", fillcolor="#3c39e577"] ;
235 -> 236 ;
237 [label="gini = 0.0\nsamples = 6\nvalue = [0, 0, 0, 0, 0, 0, 10, 0, 0, 0]\nclass = Sebastian Ruder", fillcolor="#3c39e5ff"] ;
235 -> 237 ;
238 [label="day_of_year <= 273.5\ngini = 0.38\nsamples = 10\nvalue = [0, 0, 13, 0, 3, 0, 1, 0, 0, 0]\nclass = Ellen DeGeneres", fillcolor="#7be539b6"] ;
234 -> 238 ;
239 [label="gini = 0.64\nsamples = 3\nvalue = [0, 0, 2, 0, 2, 0, 1, 0, 0, 0]\nclass = Ellen DeGeneres", fillcolor="#7be53900"] ;
238 -> 239 ;
240 [label="gini = 0.15\nsamples = 7\nvalue = [0, 0, 11, 0, 1, 0, 0, 0, 0, 0]\nclass = Ellen DeGeneres", fillcolor="#7be539e8"] ;
238 -> 240 ;
241 [label="day_of_year <= 356.0\ngini = 0.39\nsamples = 9\nvalue = [0, 0, 0, 0, 11, 0, 4, 0, 0, 0]\nclass = KATY PERRY", fillcolor="#39e5c5a2"] ;
227 -> 241 ;
242 [label="unique_ratio <= 0.88\ngini = 0.5\nsamples = 4\nvalue = [0, 0, 0, 0, 3, 0, 3, 0, 0, 0]\nclass = KATY PERRY", fillcolor="#39e5c500"] ;
241 -> 242 ;
243 [label="gini = 0.0\nsamples = 2\nvalue = [0, 0, 0, 0, 0, 0, 3, 0, 0, 0]\nclass = Sebastian Ruder", fillcolor="#3c39e5ff"] ;
242 -> 243 ;
244 [label="gini = 0.0\nsamples = 2\nvalue = [0, 0, 0, 0, 3, 0, 0, 0, 0, 0]\nclass = KATY PERRY", fillcolor="#39e5c5ff"] ;
242 -> 244 ;
245 [label="unique_ratio <= 0.88\ngini = 0.2\nsamples = 5\nvalue = [0, 0, 0, 0, 8, 0, 1, 0, 0, 0]\nclass = KATY PERRY", fillcolor="#39e5c5df"] ;
241 -> 245 ;
246 [label="day_of_year <= 357.5\ngini = 0.44\nsamples = 2\nvalue = [0, 0, 0, 0, 2, 0, 1, 0, 0, 0]\nclass = KATY PERRY", fillcolor="#39e5c57f"] ;
245 -> 246 ;
247 [label="gini = 0.0\nsamples = 1\nvalue = [0, 0, 0, 0, 2, 0, 0, 0, 0, 0]\nclass = KATY PERRY", fillcolor="#39e5c5ff"] ;
246 -> 247 ;
248 [label="gini = 0.0\nsamples = 1\nvalue = [0, 0, 0, 0, 0, 0, 1, 0, 0, 0]\nclass = Sebastian Ruder", fillcolor="#3c39e5ff"] ;
246 -> 248 ;
249 [label="gini = 0.0\nsamples = 3\nvalue = [0, 0, 0, 0, 6, 0, 0, 0, 0, 0]\nclass = KATY PERRY", fillcolor="#39e5c5ff"] ;
245 -> 249 ;
250 [label="year <= 2018.5\ngini = 0.53\nsamples = 1269\nvalue = [12, 0, 36, 39, 1308, 160, 438, 8, 0, 24]\nclass = KATY PERRY", fillcolor="#39e5c58c"] ;
176 -> 250 ;
251 [label="day_of_year <= 296.0\ngini = 0.68\nsamples = 364\nvalue = [3, 0, 0, 7, 236, 110, 205, 4, 0, 20]\nclass = KATY PERRY", fillcolor="#39e5c515"] ;
250 -> 251 ;
252 [label="punc_ratio <= 0.02\ngini = 0.59\nsamples = 178\nvalue = [2, 0, 0, 4, 0, 109, 131, 4, 0, 18]\nclass = Sebastian Ruder", fillcolor="#3c39e523"] ;
251 -> 252 ;
253 [label="day_of_year <= 162.5\ngini = 0.39\nsamples = 67\nvalue = [2, 0, 0, 1, 0, 18, 78, 2, 0, 2]\nclass = Sebastian Ruder", fillcolor="#3c39e5b4"] ;
252 -> 253 ;
254 [label="unique_ratio <= 0.2\ngini = 0.41\nsamples = 11\nvalue = [2, 0, 0, 0, 0, 12, 0, 1, 0, 1]\nclass = Neil deGrasse Tyson", fillcolor="#399de5b6"] ;
253 -> 254 ;
255 [label="unique_ratio <= 0.17\ngini = 0.44\nsamples = 2\nvalue = [2, 0, 0, 0, 0, 0, 0, 0, 0, 1]\nclass = Neil deGrasse Tyson", fillcolor="#e581397f"] ;
254 -> 255 ;
256 [label="gini = 0.0\nsamples = 1\nvalue = [0, 0, 0, 0, 0, 0, 0, 0, 0, 1]\nclass = Kim Kardashian West", fillcolor="#e53958ff"] ;
255 -> 256 ;
257 [label="gini = 0.0\nsamples = 1\nvalue = [2, 0, 0, 0, 0, 0, 0, 0, 0, 0]\nclass = Neil deGrasse Tyson", fillcolor="#e58139ff"] ;
255 -> 257 ;
258 [label="punc_ratio <= 0.01\ngini = 0.14\nsamples = 9\nvalue = [0, 0, 0, 0, 0, 12, 0, 1, 0, 0]\nclass = Neil deGrasse Tyson", fillcolor="#399de5ea"] ;
254 -> 258 ;
259 [label="gini = 0.0\nsamples = 5\nvalue = [0, 0, 0, 0, 0, 8, 0, 0, 0, 0]\nclass = Neil deGrasse Tyson", fillcolor="#399de5ff"] ;
258 -> 259 ;
260 [label="gini = 0.32\nsamples = 4\nvalue = [0, 0, 0, 0, 0, 4, 0, 1, 0, 0]\nclass = Neil deGrasse Tyson", fillcolor="#399de5bf"] ;
258 -> 260 ;
261 [label="unique_ratio <= 0.17\ngini = 0.19\nsamples = 56\nvalue = [0, 0, 0, 1, 0, 6, 78, 1, 0, 1]\nclass = Sebastian Ruder", fillcolor="#3c39e5e3"] ;
253 -> 261 ;
262 [label="gini = 0.0\nsamples = 1\nvalue = [0, 0, 0, 0, 0, 0, 0, 1, 0, 0]\nclass = Kim Kardashian West", fillcolor="#a339e5ff"] ;
261 -> 262 ;
263 [label="day_of_year <= 233.0\ngini = 0.17\nsamples = 55\nvalue = [0, 0, 0, 1, 0, 6, 78, 0, 0, 1]\nclass = Sebastian Ruder", fillcolor="#3c39e5e5"] ;
261 -> 263 ;
264 [label="gini = 0.28\nsamples = 25\nvalue = [0, 0, 0, 0, 0, 6, 35, 0, 0, 1]\nclass = Sebastian Ruder", fillcolor="#3c39e5cd"] ;
263 -> 264 ;
265 [label="gini = 0.04\nsamples = 30\nvalue = [0, 0, 0, 1, 0, 0, 43, 0, 0, 0]\nclass = Sebastian Ruder", fillcolor="#3c39e5f9"] ;
263 -> 265 ;
266 [label="day_of_year <= 169.5\ngini = 0.58\nsamples = 111\nvalue = [0, 0, 0, 3, 0, 91, 53, 2, 0, 16]\nclass = Neil deGrasse Tyson", fillcolor="#399de557"] ;
252 -> 266 ;
267 [label="word_count <= 10.5\ngini = 0.29\nsamples = 66\nvalue = [0, 0, 0, 0, 0, 83, 0, 2, 0, 15]\nclass = Neil deGrasse Tyson", fillcolor="#399de5cc"] ;
266 -> 267 ;
268 [label="day_of_year <= 147.5\ngini = 0.2\nsamples = 60\nvalue = [0, 0, 0, 0, 0, 81, 0, 0, 0, 10]\nclass = Neil deGrasse Tyson", fillcolor="#399de5e0"] ;
267 -> 268 ;
269 [label="gini = 0.16\nsamples = 58\nvalue = [0, 0, 0, 0, 0, 81, 0, 0, 0, 8]\nclass = Neil deGrasse Tyson", fillcolor="#399de5e6"] ;
268 -> 269 ;
270 [label="gini = 0.0\nsamples = 2\nvalue = [0, 0, 0, 0, 0, 0, 0, 0, 0, 2]\nclass = Kim Kardashian West", fillcolor="#e53958ff"] ;
268 -> 270 ;
271 [label="day_of_year <= 95.5\ngini = 0.59\nsamples = 6\nvalue = [0, 0, 0, 0, 0, 2, 0, 2, 0, 5]\nclass = Kim Kardashian West", fillcolor="#e539586d"] ;
267 -> 271 ;
272 [label="gini = 0.5\nsamples = 3\nvalue = [0, 0, 0, 0, 0, 2, 0, 2, 0, 0]\nclass = Neil deGrasse Tyson", fillcolor="#399de500"] ;
271 -> 272 ;
273 [label="gini = 0.0\nsamples = 3\nvalue = [0, 0, 0, 0, 0, 0, 0, 0, 0, 5]\nclass = Kim Kardashian West", fillcolor="#e53958ff"] ;
271 -> 273 ;
274 [label="day_of_year <= 285.0\ngini = 0.32\nsamples = 45\nvalue = [0, 0, 0, 3, 0, 8, 53, 0, 0, 1]\nclass = Sebastian Ruder", fillcolor="#3c39e5c9"] ;
266 -> 274 ;
275 [label="day_of_year <= 273.0\ngini = 0.26\nsamples = 44\nvalue = [0, 0, 0, 3, 0, 5, 53, 0, 0, 1]\nclass = Sebastian Ruder", fillcolor="#3c39e5d7"] ;
274 -> 275 ;
276 [label="gini = 0.18\nsamples = 38\nvalue = [0, 0, 0, 1, 0, 3, 48, 0, 0, 1]\nclass = Sebastian Ruder", fillcolor="#3c39e5e6"] ;
275 -> 276 ;
277 [label="gini = 0.59\nsamples = 6\nvalue = [0, 0, 0, 2, 0, 2, 5, 0, 0, 0]\nclass = Sebastian Ruder", fillcolor="#3c39e56d"] ;
275 -> 277 ;
278 [label="gini = 0.0\nsamples = 1\nvalue = [0, 0, 0, 0, 0, 3, 0, 0, 0, 0]\nclass = Neil deGrasse Tyson", fillcolor="#399de5ff"] ;
274 -> 278 ;
279 [label="unique_ratio <= 0.25\ngini = 0.39\nsamples = 186\nvalue = [1, 0, 0, 3, 236, 1, 74, 0, 0, 2]\nclass = KATY PERRY", fillcolor="#39e5c5aa"] ;
251 -> 279 ;
280 [label="punc_ratio <= 0.02\ngini = 0.56\nsamples = 53\nvalue = [1, 0, 0, 3, 42, 0, 47, 0, 0, 2]\nclass = Sebastian Ruder", fillcolor="#3c39e518"] ;
279 -> 280 ;
281 [label="day_of_year <= 304.5\ngini = 0.45\nsamples = 21\nvalue = [0, 0, 0, 0, 21, 0, 7, 0, 0, 2]\nclass = KATY PERRY", fillcolor="#39e5c59b"] ;
280 -> 281 ;
282 [label="day_of_year <= 301.0\ngini = 0.32\nsamples = 4\nvalue = [0, 0, 0, 0, 1, 0, 4, 0, 0, 0]\nclass = Sebastian Ruder", fillcolor="#3c39e5bf"] ;
281 -> 282 ;
283 [label="gini = 0.0\nsamples = 1\nvalue = [0, 0, 0, 0, 1, 0, 0, 0, 0, 0]\nclass = KATY PERRY", fillcolor="#39e5c5ff"] ;
282 -> 283 ;
284 [label="gini = 0.0\nsamples = 3\nvalue = [0, 0, 0, 0, 0, 0, 4, 0, 0, 0]\nclass = Sebastian Ruder", fillcolor="#3c39e5ff"] ;
282 -> 284 ;
285 [label="unique_ratio <= 0.14\ngini = 0.34\nsamples = 17\nvalue = [0, 0, 0, 0, 20, 0, 3, 0, 0, 2]\nclass = KATY PERRY", fillcolor="#39e5c5c5"] ;
281 -> 285 ;
286 [label="gini = 0.0\nsamples = 1\nvalue = [0, 0, 0, 0, 0, 0, 0, 0, 0, 2]\nclass = Kim Kardashian West", fillcolor="#e53958ff"] ;
285 -> 286 ;
287 [label="gini = 0.23\nsamples = 16\nvalue = [0, 0, 0, 0, 20, 0, 3, 0, 0, 0]\nclass = KATY PERRY", fillcolor="#39e5c5d9"] ;
285 -> 287 ;
288 [label="punc_ratio <= 0.02\ngini = 0.51\nsamples = 32\nvalue = [1, 0, 0, 3, 21, 0, 40, 0, 0, 0]\nclass = Sebastian Ruder", fillcolor="#3c39e56e"] ;
280 -> 288 ;
289 [label="day_of_year <= 349.5\ngini = 0.17\nsamples = 13\nvalue = [0, 0, 0, 0, 2, 0, 19, 0, 0, 0]\nclass = Sebastian Ruder", fillcolor="#3c39e5e4"] ;
288 -> 289 ;
290 [label="gini = 0.09\nsamples = 12\nvalue = [0, 0, 0, 0, 1, 0, 19, 0, 0, 0]\nclass = Sebastian Ruder", fillcolor="#3c39e5f2"] ;
289 -> 290 ;
291 [label="gini = 0.0\nsamples = 1\nvalue = [0, 0, 0, 0, 1, 0, 0, 0, 0, 0]\nclass = KATY PERRY", fillcolor="#39e5c5ff"] ;
289 -> 291 ;
292 [label="has_mentions <= 0.5\ngini = 0.58\nsamples = 19\nvalue = [1, 0, 0, 3, 19, 0, 21, 0, 0, 0]\nclass = Sebastian Ruder", fillcolor="#3c39e514"] ;
288 -> 292 ;
293 [label="gini = 0.0\nsamples = 4\nvalue = [0, 0, 0, 0, 0, 0, 12, 0, 0, 0]\nclass = Sebastian Ruder", fillcolor="#3c39e5ff"] ;
292 -> 293 ;
294 [label="gini = 0.56\nsamples = 15\nvalue = [1, 0, 0, 3, 19, 0, 9, 0, 0, 0]\nclass = KATY PERRY", fillcolor="#39e5c56f"] ;
292 -> 294 ;
295 [label="punc_count <= 1.5\ngini = 0.22\nsamples = 133\nvalue = [0, 0, 0, 0, 194, 1, 27, 0, 0, 0]\nclass = KATY PERRY", fillcolor="#39e5c5da"] ;
279 -> 295 ;
296 [label="unique_ratio <= 0.88\ngini = 0.15\nsamples = 87\nvalue = [0, 0, 0, 0, 136, 1, 11, 0, 0, 0]\nclass = KATY PERRY", fillcolor="#39e5c5e9"] ;
295 -> 296 ;
297 [label="word_count <= 6.5\ngini = 0.13\nsamples = 85\nvalue = [0, 0, 0, 0, 134, 1, 9, 0, 0, 0]\nclass = KATY PERRY", fillcolor="#39e5c5ec"] ;
296 -> 297 ;
298 [label="gini = 0.09\nsamples = 77\nvalue = [0, 0, 0, 0, 124, 0, 6, 0, 0, 0]\nclass = KATY PERRY", fillcolor="#39e5c5f3"] ;
297 -> 298 ;
299 [label="gini = 0.44\nsamples = 8\nvalue = [0, 0, 0, 0, 10, 1, 3, 0, 0, 0]\nclass = KATY PERRY", fillcolor="#39e5c5a2"] ;
297 -> 299 ;
300 [label="day_of_year <= 329.0\ngini = 0.5\nsamples = 2\nvalue = [0, 0, 0, 0, 2, 0, 2, 0, 0, 0]\nclass = KATY PERRY", fillcolor="#39e5c500"] ;
296 -> 300 ;
301 [label="gini = 0.0\nsamples = 1\nvalue = [0, 0, 0, 0, 0, 0, 2, 0, 0, 0]\nclass = Sebastian Ruder", fillcolor="#3c39e5ff"] ;
300 -> 301 ;
302 [label="gini = 0.0\nsamples = 1\nvalue = [0, 0, 0, 0, 2, 0, 0, 0, 0, 0]\nclass = KATY PERRY", fillcolor="#39e5c5ff"] ;
300 -> 302 ;
303 [label="punc_ratio <= 0.04\ngini = 0.34\nsamples = 46\nvalue = [0, 0, 0, 0, 58, 0, 16, 0, 0, 0]\nclass = KATY PERRY", fillcolor="#39e5c5b9"] ;
295 -> 303 ;
304 [label="day_of_year <= 339.5\ngini = 0.15\nsamples = 20\nvalue = [0, 0, 0, 0, 33, 0, 3, 0, 0, 0]\nclass = KATY PERRY", fillcolor="#39e5c5e8"] ;
303 -> 304 ;
305 [label="gini = 0.0\nsamples = 13\nvalue = [0, 0, 0, 0, 22, 0, 0, 0, 0, 0]\nclass = KATY PERRY", fillcolor="#39e5c5ff"] ;
304 -> 305 ;
306 [label="gini = 0.34\nsamples = 7\nvalue = [0, 0, 0, 0, 11, 0, 3, 0, 0, 0]\nclass = KATY PERRY", fillcolor="#39e5c5b9"] ;
304 -> 306 ;
307 [label="punc_ratio <= 0.05\ngini = 0.45\nsamples = 26\nvalue = [0, 0, 0, 0, 25, 0, 13, 0, 0, 0]\nclass = KATY PERRY", fillcolor="#39e5c57a"] ;
303 -> 307 ;
308 [label="gini = 0.0\nsamples = 2\nvalue = [0, 0, 0, 0, 0, 0, 3, 0, 0, 0]\nclass = Sebastian Ruder", fillcolor="#3c39e5ff"] ;
307 -> 308 ;
309 [label="gini = 0.41\nsamples = 24\nvalue = [0, 0, 0, 0, 25, 0, 10, 0, 0, 0]\nclass = KATY PERRY", fillcolor="#39e5c599"] ;
307 -> 309 ;
310 [label="day_of_year <= 271.5\ngini = 0.42\nsamples = 905\nvalue = [9, 0, 36, 32, 1072, 50, 233, 4, 0, 4]\nclass = KATY PERRY", fillcolor="#39e5c5b1"] ;
250 -> 310 ;
311 [label="unique_ratio <= 0.24\ngini = 0.39\nsamples = 868\nvalue = [9, 0, 0, 32, 1050, 50, 232, 4, 0, 4]\nclass = KATY PERRY", fillcolor="#39e5c5b6"] ;
310 -> 311 ;
312 [label="punc_ratio <= 0.01\ngini = 0.56\nsamples = 142\nvalue = [9, 0, 0, 10, 134, 4, 73, 1, 0, 0]\nclass = KATY PERRY", fillcolor="#39e5c562"] ;
311 -> 312 ;
313 [label="punc_ratio <= 0.01\ngini = 0.56\nsamples = 31\nvalue = [4, 0, 0, 0, 22, 0, 29, 0, 0, 0]\nclass = Sebastian Ruder", fillcolor="#3c39e536"] ;
312 -> 313 ;
314 [label="has_mentions <= 0.5\ngini = 0.43\nsamples = 14\nvalue = [0, 0, 0, 0, 20, 0, 9, 0, 0, 0]\nclass = KATY PERRY", fillcolor="#39e5c58c"] ;
313 -> 314 ;
315 [label="gini = 0.28\nsamples = 3\nvalue = [0, 0, 0, 0, 1, 0, 5, 0, 0, 0]\nclass = Sebastian Ruder", fillcolor="#3c39e5cc"] ;
314 -> 315 ;
316 [label="gini = 0.29\nsamples = 11\nvalue = [0, 0, 0, 0, 19, 0, 4, 0, 0, 0]\nclass = KATY PERRY", fillcolor="#39e5c5c9"] ;
314 -> 316 ;
317 [label="unique_ratio <= 0.19\ngini = 0.38\nsamples = 17\nvalue = [4, 0, 0, 0, 2, 0, 20, 0, 0, 0]\nclass = Sebastian Ruder", fillcolor="#3c39e5b9"] ;
313 -> 317 ;
318 [label="gini = 0.5\nsamples = 4\nvalue = [4, 0, 0, 0, 0, 0, 4, 0, 0, 0]\nclass = Neil deGrasse Tyson", fillcolor="#e5813900"] ;
317 -> 318 ;
319 [label="gini = 0.2\nsamples = 13\nvalue = [0, 0, 0, 0, 2, 0, 16, 0, 0, 0]\nclass = Sebastian Ruder", fillcolor="#3c39e5df"] ;
317 -> 319 ;
320 [label="punc_ratio <= 0.02\ngini = 0.53\nsamples = 111\nvalue = [5, 0, 0, 10, 112, 4, 44, 1, 0, 0]\nclass = KATY PERRY", fillcolor="#39e5c583"] ;
312 -> 320 ;
321 [label="punc_ratio <= 0.02\ngini = 0.48\nsamples = 95\nvalue = [5, 0, 0, 4, 102, 4, 34, 1, 0, 0]\nclass = KATY PERRY", fillcolor="#39e5c595"] ;
320 -> 321 ;
322 [label="gini = 0.57\nsamples = 55\nvalue = [5, 0, 0, 1, 50, 3, 27, 1, 0, 0]\nclass = KATY PERRY", fillcolor="#39e5c562"] ;
321 -> 322 ;
323 [label="gini = 0.3\nsamples = 40\nvalue = [0, 0, 0, 3, 52, 1, 7, 0, 0, 0]\nclass = KATY PERRY", fillcolor="#39e5c5cd"] ;
321 -> 323 ;
324 [label="day_of_year <= 212.0\ngini = 0.65\nsamples = 16\nvalue = [0, 0, 0, 6, 10, 0, 10, 0, 0, 0]\nclass = KATY PERRY", fillcolor="#39e5c500"] ;
320 -> 324 ;
325 [label="gini = 0.63\nsamples = 10\nvalue = [0, 0, 0, 6, 7, 0, 3, 0, 0, 0]\nclass = KATY PERRY", fillcolor="#39e5c51a"] ;
324 -> 325 ;
326 [label="gini = 0.42\nsamples = 6\nvalue = [0, 0, 0, 0, 3, 0, 7, 0, 0, 0]\nclass = Sebastian Ruder", fillcolor="#3c39e592"] ;
324 -> 326 ;
327 [label="has_mentions <= 0.5\ngini = 0.34\nsamples = 726\nvalue = [0, 0, 0, 22, 916, 46, 159, 3, 0, 4]\nclass = KATY PERRY", fillcolor="#39e5c5c3"] ;
311 -> 327 ;
328 [label="word_count <= 4.5\ngini = 0.59\nsamples = 139\nvalue = [0, 0, 0, 3, 115, 25, 63, 3, 0, 0]\nclass = KATY PERRY", fillcolor="#39e5c55b"] ;
327 -> 328 ;
329 [label="day_of_year <= 32.0\ngini = 0.43\nsamples = 62\nvalue = [0, 0, 0, 0, 70, 4, 20, 3, 0, 0]\nclass = KATY PERRY", fillcolor="#39e5c5a6"] ;
328 -> 329 ;
330 [label="gini = 0.35\nsamples = 5\nvalue = [0, 0, 0, 0, 2, 0, 7, 0, 0, 0]\nclass = Sebastian Ruder", fillcolor="#3c39e5b6"] ;
329 -> 330 ;
331 [label="gini = 0.38\nsamples = 57\nvalue = [0, 0, 0, 0, 68, 4, 13, 3, 0, 0]\nclass = KATY PERRY", fillcolor="#39e5c5bb"] ;
329 -> 331 ;
332 [label="unique_ratio <= 0.39\ngini = 0.66\nsamples = 77\nvalue = [0, 0, 0, 3, 45, 21, 43, 0, 0, 0]\nclass = KATY PERRY", fillcolor="#39e5c507"] ;
328 -> 332 ;
333 [label="gini = 0.66\nsamples = 53\nvalue = [0, 0, 0, 3, 36, 18, 22, 0, 0, 0]\nclass = KATY PERRY", fillcolor="#39e5c53f"] ;
332 -> 333 ;
334 [label="gini = 0.51\nsamples = 24\nvalue = [0, 0, 0, 0, 9, 3, 21, 0, 0, 0]\nclass = Sebastian Ruder", fillcolor="#3c39e580"] ;
332 -> 334 ;
335 [label="day_of_year <= 197.0\ngini = 0.26\nsamples = 587\nvalue = [0, 0, 0, 19, 801, 21, 96, 0, 0, 4]\nclass = KATY PERRY", fillcolor="#39e5c5d5"] ;
327 -> 335 ;
336 [label="unique_ratio <= 0.36\ngini = 0.32\nsamples = 423\nvalue = [0, 0, 0, 16, 545, 21, 82, 0, 0, 3]\nclass = KATY PERRY", fillcolor="#39e5c5ca"] ;
335 -> 336 ;
337 [label="gini = 0.43\nsamples = 130\nvalue = [0, 0, 0, 6, 152, 13, 37, 0, 0, 0]\nclass = KATY PERRY", fillcolor="#39e5c5ab"] ;
336 -> 337 ;
338 [label="gini = 0.26\nsamples = 293\nvalue = [0, 0, 0, 10, 393, 8, 45, 0, 0, 3]\nclass = KATY PERRY", fillcolor="#39e5c5d6"] ;
336 -> 338 ;
339 [label="day_of_year <= 242.5\ngini = 0.12\nsamples = 164\nvalue = [0, 0, 0, 3, 256, 0, 14, 0, 0, 1]\nclass = KATY PERRY", fillcolor="#39e5c5ed"] ;
335 -> 339 ;
340 [label="gini = 0.01\nsamples = 88\nvalue = [0, 0, 0, 0, 148, 0, 0, 0, 0, 1]\nclass = KATY PERRY", fillcolor="#39e5c5fd"] ;
339 -> 340 ;
341 [label="gini = 0.24\nsamples = 76\nvalue = [0, 0, 0, 3, 108, 0, 14, 0, 0, 0]\nclass = KATY PERRY", fillcolor="#39e5c5d8"] ;
339 -> 341 ;
342 [label="unique_ratio <= 0.26\ngini = 0.49\nsamples = 37\nvalue = [0, 0, 36, 0, 22, 0, 1, 0, 0, 0]\nclass = Ellen DeGeneres", fillcolor="#7be53960"] ;
310 -> 342 ;
343 [label="day_of_year <= 276.5\ngini = 0.21\nsamples = 21\nvalue = [0, 0, 30, 0, 3, 0, 1, 0, 0, 0]\nclass = Ellen DeGeneres", fillcolor="#7be539de"] ;
342 -> 343 ;
344 [label="unique_ratio <= 0.2\ngini = 0.17\nsamples = 20\nvalue = [0, 0, 30, 0, 3, 0, 0, 0, 0, 0]\nclass = Ellen DeGeneres", fillcolor="#7be539e6"] ;
343 -> 344 ;
345 [label="gini = 0.0\nsamples = 9\nvalue = [0, 0, 16, 0, 0, 0, 0, 0, 0, 0]\nclass = Ellen DeGeneres", fillcolor="#7be539ff"] ;
344 -> 345 ;
346 [label="unique_ratio <= 0.2\ngini = 0.29\nsamples = 11\nvalue = [0, 0, 14, 0, 3, 0, 0, 0, 0, 0]\nclass = Ellen DeGeneres", fillcolor="#7be539c8"] ;
344 -> 346 ;
347 [label="gini = 0.0\nsamples = 1\nvalue = [0, 0, 0, 0, 2, 0, 0, 0, 0, 0]\nclass = KATY PERRY", fillcolor="#39e5c5ff"] ;
346 -> 347 ;
348 [label="gini = 0.12\nsamples = 10\nvalue = [0, 0, 14, 0, 1, 0, 0, 0, 0, 0]\nclass = Ellen DeGeneres", fillcolor="#7be539ed"] ;
346 -> 348 ;
349 [label="gini = 0.0\nsamples = 1\nvalue = [0, 0, 0, 0, 0, 0, 1, 0, 0, 0]\nclass = Sebastian Ruder", fillcolor="#3c39e5ff"] ;
343 -> 349 ;
350 [label="day_of_year <= 273.5\ngini = 0.36\nsamples = 16\nvalue = [0, 0, 6, 0, 19, 0, 0, 0, 0, 0]\nclass = KATY PERRY", fillcolor="#39e5c5ae"] ;
342 -> 350 ;
351 [label="punc_ratio <= 0.02\ngini = 0.28\nsamples = 5\nvalue = [0, 0, 5, 0, 1, 0, 0, 0, 0, 0]\nclass = Ellen DeGeneres", fillcolor="#7be539cc"] ;
350 -> 351 ;
352 [label="gini = 0.0\nsamples = 3\nvalue = [0, 0, 4, 0, 0, 0, 0, 0, 0, 0]\nclass = Ellen DeGeneres", fillcolor="#7be539ff"] ;
351 -> 352 ;
353 [label="unique_ratio <= 0.28\ngini = 0.5\nsamples = 2\nvalue = [0, 0, 1, 0, 1, 0, 0, 0, 0, 0]\nclass = Ellen DeGeneres", fillcolor="#7be53900"] ;
351 -> 353 ;
354 [label="gini = 0.0\nsamples = 1\nvalue = [0, 0, 1, 0, 0, 0, 0, 0, 0, 0]\nclass = Ellen DeGeneres", fillcolor="#7be539ff"] ;
353 -> 354 ;
355 [label="gini = 0.0\nsamples = 1\nvalue = [0, 0, 0, 0, 1, 0, 0, 0, 0, 0]\nclass = KATY PERRY", fillcolor="#39e5c5ff"] ;
353 -> 355 ;
356 [label="word_count <= 6.5\ngini = 0.1\nsamples = 11\nvalue = [0, 0, 1, 0, 18, 0, 0, 0, 0, 0]\nclass = KATY PERRY", fillcolor="#39e5c5f1"] ;
350 -> 356 ;
357 [label="gini = 0.0\nsamples = 7\nvalue = [0, 0, 0, 0, 13, 0, 0, 0, 0, 0]\nclass = KATY PERRY", fillcolor="#39e5c5ff"] ;
356 -> 357 ;
358 [label="unique_ratio <= 0.38\ngini = 0.28\nsamples = 4\nvalue = [0, 0, 1, 0, 5, 0, 0, 0, 0, 0]\nclass = KATY PERRY", fillcolor="#39e5c5cc"] ;
356 -> 358 ;
359 [label="gini = 0.0\nsamples = 3\nvalue = [0, 0, 0, 0, 5, 0, 0, 0, 0, 0]\nclass = KATY PERRY", fillcolor="#39e5c5ff"] ;
358 -> 359 ;
360 [label="gini = 0.0\nsamples = 1\nvalue = [0, 0, 1, 0, 0, 0, 0, 0, 0, 0]\nclass = Ellen DeGeneres", fillcolor="#7be539ff"] ;
358 -> 360 ;
361 [label="has_mentions <= 0.5\ngini = 0.74\nsamples = 2773\nvalue = [132, 268, 114, 182, 1139, 586, 1805, 18, 0, 128]\nclass = Sebastian Ruder", fillcolor="#3c39e535"] ;
175 -> 361 ;
362 [label="punc_ratio <= 0.1\ngini = 0.69\nsamples = 1476\nvalue = [107, 243, 65, 71, 288, 289, 1161, 17, 0, 45]\nclass = Sebastian Ruder", fillcolor="#3c39e56f"] ;
361 -> 362 ;
363 [label="unique_ratio <= 0.21\ngini = 0.75\nsamples = 1143\nvalue = [106, 194, 57, 71, 261, 243, 779, 17, 0, 41]\nclass = Sebastian Ruder", fillcolor="#3c39e558"] ;
362 -> 363 ;
364 [label="day_of_year <= 266.0\ngini = 0.81\nsamples = 323\nvalue = [89, 25, 35, 27, 52, 76, 160, 12, 0, 9]\nclass = Sebastian Ruder", fillcolor="#3c39e52e"] ;
363 -> 364 ;
365 [label="year <= 2018.5\ngini = 0.77\nsamples = 225\nvalue = [60, 19, 0, 18, 32, 70, 129, 7, 0, 8]\nclass = Sebastian Ruder", fillcolor="#3c39e537"] ;
364 -> 365 ;
366 [label="unique_ratio <= 0.19\ngini = 0.76\nsamples = 67\nvalue = [14, 11, 0, 0, 0, 35, 28, 5, 0, 8]\nclass = Neil deGrasse Tyson", fillcolor="#399de518"] ;
365 -> 366 ;
367 [label="unique_ratio <= 0.18\ngini = 0.73\nsamples = 16\nvalue = [10, 5, 0, 0, 0, 0, 2, 4, 0, 3]\nclass = Neil deGrasse Tyson", fillcolor="#e5813943"] ;
366 -> 367 ;
368 [label="gini = 0.69\nsamples = 7\nvalue = [1, 1, 0, 0, 0, 0, 1, 4, 0, 1]\nclass = Kim Kardashian West", fillcolor="#a339e56d"] ;
367 -> 368 ;
369 [label="gini = 0.6\nsamples = 9\nvalue = [9, 4, 0, 0, 0, 0, 1, 0, 0, 2]\nclass = Neil deGrasse Tyson", fillcolor="#e581396a"] ;
367 -> 369 ;
370 [label="day_of_year <= 156.0\ngini = 0.67\nsamples = 51\nvalue = [4, 6, 0, 0, 0, 35, 26, 1, 0, 5]\nclass = Neil deGrasse Tyson", fillcolor="#399de52d"] ;
366 -> 370 ;
371 [label="gini = 0.39\nsamples = 25\nvalue = [2, 2, 0, 0, 0, 30, 0, 0, 0, 5]\nclass = Neil deGrasse Tyson", fillcolor="#399de5bc"] ;
370 -> 371 ;
372 [label="gini = 0.5\nsamples = 26\nvalue = [2, 4, 0, 0, 0, 5, 26, 1, 0, 0]\nclass = Sebastian Ruder", fillcolor="#3c39e5a2"] ;
370 -> 372 ;
373 [label="punc_count <= 4.5\ngini = 0.74\nsamples = 158\nvalue = [46, 8, 0, 18, 32, 35, 101, 2, 0, 0]\nclass = Sebastian Ruder", fillcolor="#3c39e548"] ;
365 -> 373 ;
374 [label="punc_ratio <= 0.03\ngini = 0.69\nsamples = 124\nvalue = [33, 7, 0, 8, 20, 23, 91, 2, 0, 0]\nclass = Sebastian Ruder", fillcolor="#3c39e562"] ;
373 -> 374 ;
375 [label="gini = 0.66\nsamples = 112\nvalue = [33, 2, 0, 4, 16, 23, 86, 2, 0, 0]\nclass = Sebastian Ruder", fillcolor="#3c39e566"] ;
374 -> 375 ;
376 [label="gini = 0.75\nsamples = 12\nvalue = [0, 5, 0, 4, 4, 0, 5, 0, 0, 0]\nclass = Cristiano Ronaldo", fillcolor="#e2e53900"] ;
374 -> 376 ;
377 [label="unique_ratio <= 0.21\ngini = 0.8\nsamples = 34\nvalue = [13, 1, 0, 10, 12, 12, 10, 0, 0, 0]\nclass = Neil deGrasse Tyson", fillcolor="#e5813906"] ;
373 -> 377 ;
378 [label="gini = 0.72\nsamples = 21\nvalue = [12, 0, 0, 2, 12, 3, 6, 0, 0, 0]\nclass = Neil deGrasse Tyson", fillcolor="#e5813900"] ;
377 -> 378 ;
379 [label="gini = 0.69\nsamples = 13\nvalue = [1, 1, 0, 8, 0, 9, 4, 0, 0, 0]\nclass = Neil deGrasse Tyson", fillcolor="#399de511"] ;
377 -> 379 ;
380 [label="year <= 2018.5\ngini = 0.82\nsamples = 98\nvalue = [29, 6, 35, 9, 20, 6, 31, 5, 0, 1]\nclass = Ellen DeGeneres", fillcolor="#7be53909"] ;
364 -> 380 ;
381 [label="day_of_year <= 310.5\ngini = 0.79\nsamples = 67\nvalue = [27, 6, 0, 9, 19, 6, 30, 2, 0, 1]\nclass = Sebastian Ruder", fillcolor="#3c39e50a"] ;
380 -> 381 ;
382 [label="day_of_year <= 304.5\ngini = 0.64\nsamples = 27\nvalue = [22, 2, 0, 1, 2, 2, 15, 0, 0, 1]\nclass = Neil deGrasse Tyson", fillcolor="#e581393b"] ;
381 -> 382 ;
383 [label="gini = 0.66\nsamples = 18\nvalue = [9, 0, 0, 1, 2, 2, 14, 0, 0, 1]\nclass = Sebastian Ruder", fillcolor="#3c39e540"] ;
382 -> 383 ;
384 [label="gini = 0.32\nsamples = 9\nvalue = [13, 2, 0, 0, 0, 0, 1, 0, 0, 0]\nclass = Neil deGrasse Tyson", fillcolor="#e58139c8"] ;
382 -> 384 ;
385 [label="word_count <= 13.5\ngini = 0.79\nsamples = 40\nvalue = [5, 4, 0, 8, 17, 4, 15, 2, 0, 0]\nclass = KATY PERRY", fillcolor="#39e5c50d"] ;
381 -> 385 ;
386 [label="gini = 0.8\nsamples = 28\nvalue = [5, 1, 0, 7, 9, 4, 12, 2, 0, 0]\nclass = Sebastian Ruder", fillcolor="#3c39e519"] ;
385 -> 386 ;
387 [label="gini = 0.63\nsamples = 12\nvalue = [0, 3, 0, 1, 8, 0, 3, 0, 0, 0]\nclass = KATY PERRY", fillcolor="#39e5c56a"] ;
385 -> 387 ;
388 [label="day_of_year <= 271.0\ngini = 0.3\nsamples = 31\nvalue = [2, 0, 35, 0, 1, 0, 1, 3, 0, 0]\nclass = Ellen DeGeneres", fillcolor="#7be539d1"] ;
380 -> 388 ;
389 [label="unique_ratio <= 0.18\ngini = 0.62\nsamples = 3\nvalue = [2, 0, 0, 0, 1, 0, 1, 0, 0, 0]\nclass = Neil deGrasse Tyson", fillcolor="#e5813955"] ;
388 -> 389 ;
390 [label="gini = 0.0\nsamples = 1\nvalue = [2, 0, 0, 0, 0, 0, 0, 0, 0, 0]\nclass = Neil deGrasse Tyson", fillcolor="#e58139ff"] ;
389 -> 390 ;
391 [label="gini = 0.5\nsamples = 2\nvalue = [0, 0, 0, 0, 1, 0, 1, 0, 0, 0]\nclass = KATY PERRY", fillcolor="#39e5c500"] ;
389 -> 391 ;
392 [label="punc_ratio <= 0.03\ngini = 0.15\nsamples = 28\nvalue = [0, 0, 35, 0, 0, 0, 0, 3, 0, 0]\nclass = Ellen DeGeneres", fillcolor="#7be539e9"] ;
388 -> 392 ;
393 [label="gini = 0.0\nsamples = 17\nvalue = [0, 0, 22, 0, 0, 0, 0, 0, 0, 0]\nclass = Ellen DeGeneres", fillcolor="#7be539ff"] ;
392 -> 393 ;
394 [label="gini = 0.3\nsamples = 11\nvalue = [0, 0, 13, 0, 0, 0, 0, 3, 0, 0]\nclass = Ellen DeGeneres", fillcolor="#7be539c4"] ;
392 -> 394 ;
395 [label="unique_ratio <= 0.62\ngini = 0.7\nsamples = 820\nvalue = [17, 169, 22, 44, 209, 167, 619, 5, 0, 32]\nclass = Sebastian Ruder", fillcolor="#3c39e561"] ;
363 -> 395 ;
396 [label="year <= 2018.5\ngini = 0.69\nsamples = 768\nvalue = [17, 129, 22, 44, 197, 165, 596, 5, 0, 26]\nclass = Sebastian Ruder", fillcolor="#3c39e565"] ;
395 -> 396 ;
397 [label="day_of_year <= 164.5\ngini = 0.66\nsamples = 306\nvalue = [10, 72, 0, 20, 18, 84, 240, 0, 0, 15]\nclass = Sebastian Ruder", fillcolor="#3c39e56a"] ;
396 -> 397 ;
398 [label="unique_ratio <= 0.25\ngini = 0.59\nsamples = 70\nvalue = [5, 35, 0, 0, 0, 60, 0, 0, 0, 10]\nclass = Neil deGrasse Tyson", fillcolor="#399de555"] ;
397 -> 398 ;
399 [label="gini = 0.45\nsamples = 24\nvalue = [2, 4, 0, 0, 0, 26, 0, 0, 0, 4]\nclass = Neil deGrasse Tyson", fillcolor="#399de5af"] ;
398 -> 399 ;
400 [label="gini = 0.61\nsamples = 46\nvalue = [3, 31, 0, 0, 0, 34, 0, 0, 0, 6]\nclass = Neil deGrasse Tyson", fillcolor="#399de512"] ;
398 -> 400 ;
401 [label="unique_ratio <= 0.32\ngini = 0.5\nsamples = 236\nvalue = [5, 37, 0, 20, 18, 24, 240, 0, 0, 5]\nclass = Sebastian Ruder", fillcolor="#3c39e5a6"] ;
397 -> 401 ;
402 [label="gini = 0.66\nsamples = 84\nvalue = [5, 14, 0, 15, 9, 17, 69, 0, 0, 0]\nclass = Sebastian Ruder", fillcolor="#3c39e576"] ;
401 -> 402 ;
403 [label="gini = 0.38\nsamples = 152\nvalue = [0, 23, 0, 5, 9, 7, 171, 0, 0, 5]\nclass = Sebastian Ruder", fillcolor="#3c39e5c0"] ;
401 -> 403 ;
404 [label="day_of_year <= 271.5\ngini = 0.69\nsamples = 462\nvalue = [7, 57, 22, 24, 179, 81, 356, 5, 0, 11]\nclass = Sebastian Ruder", fillcolor="#3c39e550"] ;
396 -> 404 ;
405 [label="word_count <= 8.5\ngini = 0.68\nsamples = 442\nvalue = [7, 57, 0, 24, 178, 81, 350, 5, 0, 11]\nclass = Sebastian Ruder", fillcolor="#3c39e552"] ;
404 -> 405 ;
406 [label="gini = 0.7\nsamples = 309\nvalue = [4, 37, 0, 21, 150, 65, 209, 1, 0, 7]\nclass = Sebastian Ruder", fillcolor="#3c39e52c"] ;
405 -> 406 ;
407 [label="gini = 0.55\nsamples = 133\nvalue = [3, 20, 0, 3, 28, 16, 141, 4, 0, 4]\nclass = Sebastian Ruder", fillcolor="#3c39e597"] ;
405 -> 407 ;
408 [label="day_of_year <= 274.5\ngini = 0.38\nsamples = 20\nvalue = [0, 0, 22, 0, 1, 0, 6, 0, 0, 0]\nclass = Ellen DeGeneres", fillcolor="#7be539b1"] ;
404 -> 408 ;
409 [label="gini = 0.5\nsamples = 8\nvalue = [0, 0, 5, 0, 0, 0, 5, 0, 0, 0]\nclass = Ellen DeGeneres", fillcolor="#7be53900"] ;
408 -> 409 ;
410 [label="gini = 0.19\nsamples = 12\nvalue = [0, 0, 17, 0, 1, 0, 1, 0, 0, 0]\nclass = Ellen DeGeneres", fillcolor="#7be539e3"] ;
408 -> 410 ;
411 [label="day_of_year <= 254.5\ngini = 0.66\nsamples = 52\nvalue = [0, 40, 0, 0, 12, 2, 23, 0, 0, 6]\nclass = Cristiano Ronaldo", fillcolor="#e2e53948"] ;
395 -> 411 ;
412 [label="punc_ratio <= 0.08\ngini = 0.61\nsamples = 42\nvalue = [0, 37, 0, 0, 7, 2, 12, 0, 0, 6]\nclass = Cristiano Ronaldo", fillcolor="#e2e5397b"] ;
411 -> 412 ;
413 [label="word_count <= 4.5\ngini = 0.26\nsamples = 10\nvalue = [0, 17, 0, 0, 2, 0, 0, 0, 0, 1]\nclass = Cristiano Ronaldo", fillcolor="#e2e539d4"] ;
412 -> 413 ;
414 [label="gini = 0.19\nsamples = 9\nvalue = [0, 17, 0, 0, 2, 0, 0, 0, 0, 0]\nclass = Cristiano Ronaldo", fillcolor="#e2e539e1"] ;
413 -> 414 ;
415 [label="gini = 0.0\nsamples = 1\nvalue = [0, 0, 0, 0, 0, 0, 0, 0, 0, 1]\nclass = Kim Kardashian West", fillcolor="#e53958ff"] ;
413 -> 415 ;
416 [label="punc_ratio <= 0.09\ngini = 0.69\nsamples = 32\nvalue = [0, 20, 0, 0, 5, 2, 12, 0, 0, 5]\nclass = Cristiano Ronaldo", fillcolor="#e2e53940"] ;
412 -> 416 ;
417 [label="gini = 0.76\nsamples = 22\nvalue = [0, 6, 0, 0, 5, 2, 10, 0, 0, 5]\nclass = Sebastian Ruder", fillcolor="#3c39e52e"] ;
416 -> 417 ;
418 [label="gini = 0.22\nsamples = 10\nvalue = [0, 14, 0, 0, 0, 0, 2, 0, 0, 0]\nclass = Cristiano Ronaldo", fillcolor="#e2e539db"] ;
416 -> 418 ;
419 [label="unique_ratio <= 0.65\ngini = 0.57\nsamples = 10\nvalue = [0, 3, 0, 0, 5, 0, 11, 0, 0, 0]\nclass = Sebastian Ruder", fillcolor="#3c39e56d"] ;
411 -> 419 ;
420 [label="day_of_year <= 291.5\ngini = 0.65\nsamples = 7\nvalue = [0, 3, 0, 0, 5, 0, 5, 0, 0, 0]\nclass = KATY PERRY", fillcolor="#39e5c500"] ;
419 -> 420 ;
421 [label="gini = 0.48\nsamples = 3\nvalue = [0, 3, 0, 0, 0, 0, 2, 0, 0, 0]\nclass = Cristiano Ronaldo", fillcolor="#e2e53955"] ;
420 -> 421 ;
422 [label="gini = 0.47\nsamples = 4\nvalue = [0, 0, 0, 0, 5, 0, 3, 0, 0, 0]\nclass = KATY PERRY", fillcolor="#39e5c566"] ;
420 -> 422 ;
423 [label="gini = 0.0\nsamples = 3\nvalue = [0, 0, 0, 0, 0, 0, 6, 0, 0, 0]\nclass = Sebastian Ruder", fillcolor="#3c39e5ff"] ;
419 -> 423 ;
424 [label="day_of_year <= 102.5\ngini = 0.43\nsamples = 333\nvalue = [1, 49, 8, 0, 27, 46, 382, 0, 0, 4]\nclass = Sebastian Ruder", fillcolor="#3c39e5b5"] ;
362 -> 424 ;
425 [label="year <= 2018.5\ngini = 0.68\nsamples = 74\nvalue = [0, 22, 0, 0, 10, 30, 55, 0, 0, 2]\nclass = Sebastian Ruder", fillcolor="#3c39e548"] ;
424 -> 425 ;
426 [label="punc_count <= 3.5\ngini = 0.5\nsamples = 15\nvalue = [0, 10, 0, 0, 0, 12, 0, 0, 0, 0]\nclass = Neil deGrasse Tyson", fillcolor="#399de52a"] ;
425 -> 426 ;
427 [label="punc_ratio <= 0.12\ngini = 0.44\nsamples = 10\nvalue = [0, 10, 0, 0, 0, 5, 0, 0, 0, 0]\nclass = Cristiano Ronaldo", fillcolor="#e2e5397f"] ;
426 -> 427 ;
428 [label="day_of_year <= 97.0\ngini = 0.17\nsamples = 7\nvalue = [0, 10, 0, 0, 0, 1, 0, 0, 0, 0]\nclass = Cristiano Ronaldo", fillcolor="#e2e539e6"] ;
427 -> 428 ;
429 [label="gini = 0.0\nsamples = 6\nvalue = [0, 10, 0, 0, 0, 0, 0, 0, 0, 0]\nclass = Cristiano Ronaldo", fillcolor="#e2e539ff"] ;
428 -> 429 ;
430 [label="gini = 0.0\nsamples = 1\nvalue = [0, 0, 0, 0, 0, 1, 0, 0, 0, 0]\nclass = Neil deGrasse Tyson", fillcolor="#399de5ff"] ;
428 -> 430 ;
431 [label="gini = 0.0\nsamples = 3\nvalue = [0, 0, 0, 0, 0, 4, 0, 0, 0, 0]\nclass = Neil deGrasse Tyson", fillcolor="#399de5ff"] ;
427 -> 431 ;
432 [label="gini = 0.0\nsamples = 5\nvalue = [0, 0, 0, 0, 0, 7, 0, 0, 0, 0]\nclass = Neil deGrasse Tyson", fillcolor="#399de5ff"] ;
426 -> 432 ;
433 [label="day_of_year <= 41.0\ngini = 0.62\nsamples = 59\nvalue = [0, 12, 0, 0, 10, 18, 55, 0, 0, 2]\nclass = Sebastian Ruder", fillcolor="#3c39e577"] ;
425 -> 433 ;
434 [label="unique_ratio <= 0.8\ngini = 0.49\nsamples = 26\nvalue = [0, 8, 0, 0, 3, 0, 28, 0, 0, 2]\nclass = Sebastian Ruder", fillcolor="#3c39e59b"] ;
433 -> 434 ;
435 [label="punc_ratio <= 0.13\ngini = 0.4\nsamples = 22\nvalue = [0, 3, 0, 0, 3, 0, 26, 0, 0, 2]\nclass = Sebastian Ruder", fillcolor="#3c39e5bd"] ;
434 -> 435 ;
436 [label="gini = 0.35\nsamples = 19\nvalue = [0, 3, 0, 0, 1, 0, 23, 0, 0, 2]\nclass = Sebastian Ruder", fillcolor="#3c39e5c4"] ;
435 -> 436 ;
437 [label="gini = 0.48\nsamples = 3\nvalue = [0, 0, 0, 0, 2, 0, 3, 0, 0, 0]\nclass = Sebastian Ruder", fillcolor="#3c39e555"] ;
435 -> 437 ;
438 [label="day_of_year <= 24.5\ngini = 0.41\nsamples = 4\nvalue = [0, 5, 0, 0, 0, 0, 2, 0, 0, 0]\nclass = Cristiano Ronaldo", fillcolor="#e2e53999"] ;
434 -> 438 ;
439 [label="gini = 0.0\nsamples = 2\nvalue = [0, 5, 0, 0, 0, 0, 0, 0, 0, 0]\nclass = Cristiano Ronaldo", fillcolor="#e2e539ff"] ;
438 -> 439 ;
440 [label="gini = 0.0\nsamples = 2\nvalue = [0, 0, 0, 0, 0, 0, 2, 0, 0, 0]\nclass = Sebastian Ruder", fillcolor="#3c39e5ff"] ;
438 -> 440 ;
441 [label="day_of_year <= 46.0\ngini = 0.64\nsamples = 33\nvalue = [0, 4, 0, 0, 7, 18, 27, 0, 0, 0]\nclass = Sebastian Ruder", fillcolor="#3c39e53c"] ;
433 -> 441 ;
442 [label="gini = 0.0\nsamples = 5\nvalue = [0, 0, 0, 0, 0, 10, 0, 0, 0, 0]\nclass = Neil deGrasse Tyson", fillcolor="#399de5ff"] ;
441 -> 442 ;
443 [label="unique_ratio <= 0.69\ngini = 0.59\nsamples = 28\nvalue = [0, 4, 0, 0, 7, 8, 27, 0, 0, 0]\nclass = Sebastian Ruder", fillcolor="#3c39e580"] ;
441 -> 443 ;
444 [label="gini = 0.7\nsamples = 16\nvalue = [0, 2, 0, 0, 7, 6, 10, 0, 0, 0]\nclass = Sebastian Ruder", fillcolor="#3c39e52a"] ;
443 -> 444 ;
445 [label="gini = 0.33\nsamples = 12\nvalue = [0, 2, 0, 0, 0, 2, 17, 0, 0, 0]\nclass = Sebastian Ruder", fillcolor="#3c39e5c9"] ;
443 -> 445 ;
446 [label="year <= 2018.5\ngini = 0.32\nsamples = 259\nvalue = [1, 27, 8, 0, 17, 16, 327, 0, 0, 2]\nclass = Sebastian Ruder", fillcolor="#3c39e5ce"] ;
424 -> 446 ;
447 [label="day_of_year <= 164.5\ngini = 0.21\nsamples = 167\nvalue = [0, 22, 0, 0, 4, 1, 220, 0, 0, 2]\nclass = Sebastian Ruder", fillcolor="#3c39e5de"] ;
446 -> 447 ;
448 [label="punc_ratio <= 0.1\ngini = 0.56\nsamples = 5\nvalue = [0, 3, 0, 0, 0, 1, 0, 0, 0, 1]\nclass = Cristiano Ronaldo", fillcolor="#e2e5397f"] ;
447 -> 448 ;
449 [label="unique_ratio <= 0.56\ngini = 0.5\nsamples = 2\nvalue = [0, 0, 0, 0, 0, 1, 0, 0, 0, 1]\nclass = Neil deGrasse Tyson", fillcolor="#399de500"] ;
448 -> 449 ;
450 [label="gini = 0.0\nsamples = 1\nvalue = [0, 0, 0, 0, 0, 1, 0, 0, 0, 0]\nclass = Neil deGrasse Tyson", fillcolor="#399de5ff"] ;
449 -> 450 ;
451 [label="gini = 0.0\nsamples = 1\nvalue = [0, 0, 0, 0, 0, 0, 0, 0, 0, 1]\nclass = Kim Kardashian West", fillcolor="#e53958ff"] ;
449 -> 451 ;
452 [label="gini = 0.0\nsamples = 3\nvalue = [0, 3, 0, 0, 0, 0, 0, 0, 0, 0]\nclass = Cristiano Ronaldo", fillcolor="#e2e539ff"] ;
448 -> 452 ;
453 [label="day_of_year <= 283.0\ngini = 0.18\nsamples = 162\nvalue = [0, 19, 0, 0, 4, 0, 220, 0, 0, 1]\nclass = Sebastian Ruder", fillcolor="#3c39e5e4"] ;
447 -> 453 ;
454 [label="unique_ratio <= 0.8\ngini = 0.06\nsamples = 102\nvalue = [0, 5, 0, 0, 0, 0, 146, 0, 0, 0]\nclass = Sebastian Ruder", fillcolor="#3c39e5f6"] ;
453 -> 454 ;
455 [label="gini = 0.04\nsamples = 92\nvalue = [0, 3, 0, 0, 0, 0, 132, 0, 0, 0]\nclass = Sebastian Ruder", fillcolor="#3c39e5f9"] ;
454 -> 455 ;
456 [label="gini = 0.22\nsamples = 10\nvalue = [0, 2, 0, 0, 0, 0, 14, 0, 0, 0]\nclass = Sebastian Ruder", fillcolor="#3c39e5db"] ;
454 -> 456 ;
457 [label="day_of_year <= 291.5\ngini = 0.34\nsamples = 60\nvalue = [0, 14, 0, 0, 4, 0, 74, 0, 0, 1]\nclass = Sebastian Ruder", fillcolor="#3c39e5c2"] ;
453 -> 457 ;
458 [label="gini = 0.45\nsamples = 6\nvalue = [0, 5, 0, 0, 0, 0, 1, 0, 0, 1]\nclass = Cristiano Ronaldo", fillcolor="#e2e539aa"] ;
457 -> 458 ;
459 [label="gini = 0.27\nsamples = 54\nvalue = [0, 9, 0, 0, 4, 0, 73, 0, 0, 0]\nclass = Sebastian Ruder", fillcolor="#3c39e5d4"] ;
457 -> 459 ;
460 [label="day_of_year <= 271.5\ngini = 0.46\nsamples = 92\nvalue = [1, 5, 8, 0, 13, 15, 107, 0, 0, 0]\nclass = Sebastian Ruder", fillcolor="#3c39e5af"] ;
446 -> 460 ;
461 [label="word_count <= 3.5\ngini = 0.4\nsamples = 89\nvalue = [1, 5, 0, 0, 13, 15, 107, 0, 0, 0]\nclass = Sebastian Ruder", fillcolor="#3c39e5ba"] ;
460 -> 461 ;
462 [label="unique_ratio <= 0.67\ngini = 0.37\nsamples = 85\nvalue = [1, 2, 0, 0, 13, 14, 107, 0, 0, 0]\nclass = Sebastian Ruder", fillcolor="#3c39e5c1"] ;
461 -> 462 ;
463 [label="gini = 0.55\nsamples = 31\nvalue = [1, 0, 0, 0, 9, 8, 30, 0, 0, 0]\nclass = Sebastian Ruder", fillcolor="#3c39e589"] ;
462 -> 463 ;
464 [label="gini = 0.24\nsamples = 54\nvalue = [0, 2, 0, 0, 4, 6, 77, 0, 0, 0]\nclass = Sebastian Ruder", fillcolor="#3c39e5da"] ;
462 -> 464 ;
465 [label="day_of_year <= 160.5\ngini = 0.38\nsamples = 4\nvalue = [0, 3, 0, 0, 0, 1, 0, 0, 0, 0]\nclass = Cristiano Ronaldo", fillcolor="#e2e539aa"] ;
461 -> 465 ;
466 [label="gini = 0.0\nsamples = 1\nvalue = [0, 0, 0, 0, 0, 1, 0, 0, 0, 0]\nclass = Neil deGrasse Tyson", fillcolor="#399de5ff"] ;
465 -> 466 ;
467 [label="gini = 0.0\nsamples = 3\nvalue = [0, 3, 0, 0, 0, 0, 0, 0, 0, 0]\nclass = Cristiano Ronaldo", fillcolor="#e2e539ff"] ;
465 -> 467 ;
468 [label="gini = 0.0\nsamples = 3\nvalue = [0, 0, 8, 0, 0, 0, 0, 0, 0, 0]\nclass = Ellen DeGeneres", fillcolor="#7be539ff"] ;
460 -> 468 ;
469 [label="word_count <= 14.5\ngini = 0.71\nsamples = 1297\nvalue = [25, 25, 49, 111, 851, 297, 644, 1, 0, 83]\nclass = KATY PERRY", fillcolor="#39e5c525"] ;
361 -> 469 ;
470 [label="year <= 2018.5\ngini = 0.71\nsamples = 1147\nvalue = [25, 18, 45, 108, 792, 277, 513, 1, 0, 69]\nclass = KATY PERRY", fillcolor="#39e5c535"] ;
469 -> 470 ;
471 [label="day_of_year <= 161.5\ngini = 0.75\nsamples = 369\nvalue = [9, 11, 0, 52, 130, 116, 233, 0, 0, 52]\nclass = Sebastian Ruder", fillcolor="#3c39e538"] ;
470 -> 471 ;
472 [label="punc_ratio <= 0.07\ngini = 0.43\nsamples = 76\nvalue = [4, 7, 0, 0, 0, 97, 0, 0, 0, 25]\nclass = Neil deGrasse Tyson", fillcolor="#399de5aa"] ;
471 -> 472 ;
473 [label="day_of_year <= 71.5\ngini = 0.49\nsamples = 64\nvalue = [4, 7, 0, 0, 0, 74, 0, 0, 0, 25]\nclass = Neil deGrasse Tyson", fillcolor="#399de593"] ;
472 -> 473 ;
474 [label="unique_ratio <= 0.24\ngini = 0.64\nsamples = 13\nvalue = [2, 5, 0, 0, 0, 3, 0, 0, 0, 11]\nclass = Kim Kardashian West", fillcolor="#e5395860"] ;
473 -> 474 ;
475 [label="gini = 0.74\nsamples = 6\nvalue = [2, 3, 0, 0, 0, 3, 0, 0, 0, 2]\nclass = Cristiano Ronaldo", fillcolor="#e2e53900"] ;
474 -> 475 ;
476 [label="gini = 0.3\nsamples = 7\nvalue = [0, 2, 0, 0, 0, 0, 0, 0, 0, 9]\nclass = Kim Kardashian West", fillcolor="#e53958c6"] ;
474 -> 476 ;
477 [label="day_of_year <= 102.5\ngini = 0.34\nsamples = 51\nvalue = [2, 2, 0, 0, 0, 71, 0, 0, 0, 14]\nclass = Neil deGrasse Tyson", fillcolor="#399de5c2"] ;
473 -> 477 ;
478 [label="gini = 0.13\nsamples = 33\nvalue = [1, 0, 0, 0, 0, 53, 0, 0, 0, 3]\nclass = Neil deGrasse Tyson", fillcolor="#399de5ec"] ;
477 -> 478 ;
479 [label="gini = 0.56\nsamples = 18\nvalue = [1, 2, 0, 0, 0, 18, 0, 0, 0, 11]\nclass = Neil deGrasse Tyson", fillcolor="#399de555"] ;
477 -> 479 ;
480 [label="gini = 0.0\nsamples = 12\nvalue = [0, 0, 0, 0, 0, 23, 0, 0, 0, 0]\nclass = Neil deGrasse Tyson", fillcolor="#399de5ff"] ;
472 -> 480 ;
481 [label="day_of_year <= 303.0\ngini = 0.66\nsamples = 293\nvalue = [5, 4, 0, 52, 130, 19, 233, 0, 0, 27]\nclass = Sebastian Ruder", fillcolor="#3c39e54d"] ;
471 -> 481 ;
482 [label="day_of_year <= 244.0\ngini = 0.46\nsamples = 154\nvalue = [4, 1, 0, 27, 5, 14, 179, 0, 0, 19]\nclass = Sebastian Ruder", fillcolor="#3c39e5af"] ;
481 -> 482 ;
483 [label="unique_ratio <= 0.18\ngini = 0.26\nsamples = 86\nvalue = [2, 1, 0, 2, 0, 4, 127, 0, 0, 13]\nclass = Sebastian Ruder", fillcolor="#3c39e5d6"] ;
482 -> 483 ;
484 [label="gini = 0.62\nsamples = 3\nvalue = [0, 0, 0, 1, 0, 0, 1, 0, 0, 2]\nclass = Kim Kardashian West", fillcolor="#e5395855"] ;
483 -> 484 ;
485 [label="gini = 0.24\nsamples = 83\nvalue = [2, 1, 0, 1, 0, 4, 126, 0, 0, 11]\nclass = Sebastian Ruder", fillcolor="#3c39e5db"] ;
483 -> 485 ;
486 [label="day_of_year <= 300.5\ngini = 0.65\nsamples = 68\nvalue = [2, 0, 0, 25, 5, 10, 52, 0, 0, 6]\nclass = Sebastian Ruder", fillcolor="#3c39e55c"] ;
482 -> 486 ;
487 [label="gini = 0.71\nsamples = 57\nvalue = [2, 0, 0, 25, 5, 10, 35, 0, 0, 6]\nclass = Sebastian Ruder", fillcolor="#3c39e52c"] ;
486 -> 487 ;
488 [label="gini = 0.0\nsamples = 11\nvalue = [0, 0, 0, 0, 0, 0, 17, 0, 0, 0]\nclass = Sebastian Ruder", fillcolor="#3c39e5ff"] ;
486 -> 488 ;
489 [label="unique_ratio <= 0.23\ngini = 0.61\nsamples = 139\nvalue = [1, 3, 0, 25, 125, 5, 54, 0, 0, 8]\nclass = KATY PERRY", fillcolor="#39e5c56c"] ;
481 -> 489 ;
490 [label="day_of_year <= 329.5\ngini = 0.51\nsamples = 77\nvalue = [1, 0, 0, 9, 87, 2, 26, 0, 0, 5]\nclass = KATY PERRY", fillcolor="#39e5c596"] ;
489 -> 490 ;
491 [label="gini = 0.64\nsamples = 25\nvalue = [1, 0, 0, 2, 18, 0, 21, 0, 0, 5]\nclass = Sebastian Ruder", fillcolor="#3c39e51a"] ;
490 -> 491 ;
492 [label="gini = 0.3\nsamples = 52\nvalue = [0, 0, 0, 7, 69, 2, 5, 0, 0, 0]\nclass = KATY PERRY", fillcolor="#39e5c5d0"] ;
490 -> 492 ;
493 [label="word_count <= 5.5\ngini = 0.7\nsamples = 62\nvalue = [0, 3, 0, 16, 38, 3, 28, 0, 0, 3]\nclass = KATY PERRY", fillcolor="#39e5c528"] ;
489 -> 493 ;
494 [label="gini = 0.42\nsamples = 12\nvalue = [0, 0, 0, 2, 14, 0, 3, 0, 0, 0]\nclass = KATY PERRY", fillcolor="#39e5c5af"] ;
493 -> 494 ;
495 [label="gini = 0.73\nsamples = 50\nvalue = [0, 3, 0, 14, 24, 3, 25, 0, 0, 3]\nclass = Sebastian Ruder", fillcolor="#3c39e505"] ;
493 -> 495 ;
496 [label="day_of_year <= 271.5\ngini = 0.65\nsamples = 778\nvalue = [16, 7, 45, 56, 662, 161, 280, 1, 0, 17]\nclass = KATY PERRY", fillcolor="#39e5c565"] ;
470 -> 496 ;
497 [label="day_of_year <= 133.5\ngini = 0.62\nsamples = 732\nvalue = [16, 7, 0, 55, 644, 161, 270, 1, 0, 17]\nclass = KATY PERRY", fillcolor="#39e5c56a"] ;
496 -> 497 ;
498 [label="day_of_year <= 76.5\ngini = 0.64\nsamples = 355\nvalue = [14, 4, 0, 33, 305, 127, 77, 0, 0, 12]\nclass = KATY PERRY", fillcolor="#39e5c566"] ;
497 -> 498 ;
499 [label="word_count <= 13.5\ngini = 0.58\nsamples = 169\nvalue = [11, 3, 0, 22, 175, 23, 43, 0, 0, 5]\nclass = KATY PERRY", fillcolor="#39e5c58d"] ;
498 -> 499 ;
500 [label="gini = 0.55\nsamples = 152\nvalue = [10, 3, 0, 20, 166, 22, 31, 0, 0, 5]\nclass = KATY PERRY", fillcolor="#39e5c598"] ;
499 -> 500 ;
501 [label="gini = 0.63\nsamples = 17\nvalue = [1, 0, 0, 2, 9, 1, 12, 0, 0, 0]\nclass = Sebastian Ruder", fillcolor="#3c39e530"] ;
499 -> 501 ;
502 [label="unique_ratio <= 0.33\ngini = 0.65\nsamples = 186\nvalue = [3, 1, 0, 11, 130, 104, 34, 0, 0, 7]\nclass = KATY PERRY", fillcolor="#39e5c524"] ;
498 -> 502 ;
503 [label="gini = 0.66\nsamples = 154\nvalue = [3, 1, 0, 8, 94, 102, 29, 0, 0, 7]\nclass = Neil deGrasse Tyson", fillcolor="#399de50e"] ;
502 -> 503 ;
504 [label="gini = 0.37\nsamples = 32\nvalue = [0, 0, 0, 3, 36, 2, 5, 0, 0, 0]\nclass = KATY PERRY", fillcolor="#39e5c5c1"] ;
502 -> 504 ;
505 [label="punc_ratio <= 0.04\ngini = 0.57\nsamples = 377\nvalue = [2, 3, 0, 22, 339, 34, 193, 1, 0, 5]\nclass = KATY PERRY", fillcolor="#39e5c55c"] ;
497 -> 505 ;
506 [label="day_of_year <= 168.5\ngini = 0.42\nsamples = 164\nvalue = [2, 2, 0, 5, 198, 3, 59, 1, 0, 2]\nclass = KATY PERRY", fillcolor="#39e5c5a6"] ;
505 -> 506 ;
507 [label="gini = 0.59\nsamples = 39\nvalue = [2, 0, 0, 2, 31, 2, 20, 1, 0, 0]\nclass = KATY PERRY", fillcolor="#39e5c54a"] ;
506 -> 507 ;
508 [label="gini = 0.36\nsamples = 125\nvalue = [0, 2, 0, 3, 167, 1, 39, 0, 0, 2]\nclass = KATY PERRY", fillcolor="#39e5c5bb"] ;
506 -> 508 ;
509 [label="punc_count <= 4.5\ngini = 0.63\nsamples = 213\nvalue = [0, 1, 0, 17, 141, 31, 134, 0, 0, 3]\nclass = KATY PERRY", fillcolor="#39e5c509"] ;
505 -> 509 ;
510 [label="gini = 0.51\nsamples = 91\nvalue = [0, 0, 0, 2, 82, 2, 54, 0, 0, 0]\nclass = KATY PERRY", fillcolor="#39e5c553"] ;
509 -> 510 ;
511 [label="gini = 0.69\nsamples = 122\nvalue = [0, 1, 0, 15, 59, 29, 80, 0, 0, 3]\nclass = Sebastian Ruder", fillcolor="#3c39e52a"] ;
509 -> 511 ;
512 [label="day_of_year <= 272.5\ngini = 0.55\nsamples = 46\nvalue = [0, 0, 45, 1, 18, 0, 10, 0, 0, 0]\nclass = Ellen DeGeneres", fillcolor="#7be5397b"] ;
496 -> 512 ;
513 [label="gini = 0.0\nsamples = 17\nvalue = [0, 0, 30, 0, 0, 0, 0, 0, 0, 0]\nclass = Ellen DeGeneres", fillcolor="#7be539ff"] ;
512 -> 513 ;
514 [label="unique_ratio <= 0.2\ngini = 0.66\nsamples = 29\nvalue = [0, 0, 15, 1, 18, 0, 10, 0, 0, 0]\nclass = KATY PERRY", fillcolor="#39e5c51a"] ;
512 -> 514 ;
515 [label="word_count <= 11.5\ngini = 0.41\nsamples = 8\nvalue = [0, 0, 10, 0, 4, 0, 0, 0, 0, 0]\nclass = Ellen DeGeneres", fillcolor="#7be53999"] ;
514 -> 515 ;
516 [label="gini = 0.44\nsamples = 4\nvalue = [0, 0, 2, 0, 4, 0, 0, 0, 0, 0]\nclass = KATY PERRY", fillcolor="#39e5c57f"] ;
515 -> 516 ;
517 [label="gini = 0.0\nsamples = 4\nvalue = [0, 0, 8, 0, 0, 0, 0, 0, 0, 0]\nclass = Ellen DeGeneres", fillcolor="#7be539ff"] ;
515 -> 517 ;
518 [label="punc_count <= 4.5\ngini = 0.64\nsamples = 21\nvalue = [0, 0, 5, 1, 14, 0, 10, 0, 0, 0]\nclass = KATY PERRY", fillcolor="#39e5c533"] ;
514 -> 518 ;
519 [label="gini = 0.49\nsamples = 12\nvalue = [0, 0, 0, 0, 11, 0, 8, 0, 0, 0]\nclass = KATY PERRY", fillcolor="#39e5c546"] ;
518 -> 519 ;
520 [label="gini = 0.68\nsamples = 9\nvalue = [0, 0, 5, 1, 3, 0, 2, 0, 0, 0]\nclass = Ellen DeGeneres", fillcolor="#7be53940"] ;
518 -> 520 ;
521 [label="punc_ratio <= 0.02\ngini = 0.62\nsamples = 150\nvalue = [0, 7, 4, 3, 59, 20, 131, 0, 0, 14]\nclass = Sebastian Ruder", fillcolor="#3c39e567"] ;
469 -> 521 ;
522 [label="day_of_year <= 193.5\ngini = 0.64\nsamples = 6\nvalue = [0, 0, 0, 3, 5, 3, 0, 0, 0, 0]\nclass = KATY PERRY", fillcolor="#39e5c540"] ;
521 -> 522 ;
523 [label="gini = 0.0\nsamples = 3\nvalue = [0, 0, 0, 0, 4, 0, 0, 0, 0, 0]\nclass = KATY PERRY", fillcolor="#39e5c5ff"] ;
522 -> 523 ;
524 [label="unique_ratio <= 0.2\ngini = 0.61\nsamples = 3\nvalue = [0, 0, 0, 3, 1, 3, 0, 0, 0, 0]\nclass = Sebastian Ruder", fillcolor="#39e55e00"] ;
522 -> 524 ;
525 [label="gini = 0.0\nsamples = 1\nvalue = [0, 0, 0, 3, 0, 0, 0, 0, 0, 0]\nclass = Sebastian Ruder", fillcolor="#39e55eff"] ;
524 -> 525 ;
526 [label="unique_ratio <= 0.23\ngini = 0.38\nsamples = 2\nvalue = [0, 0, 0, 0, 1, 3, 0, 0, 0, 0]\nclass = Neil deGrasse Tyson", fillcolor="#399de5aa"] ;
524 -> 526 ;
527 [label="gini = 0.0\nsamples = 1\nvalue = [0, 0, 0, 0, 1, 0, 0, 0, 0, 0]\nclass = KATY PERRY", fillcolor="#39e5c5ff"] ;
526 -> 527 ;
528 [label="gini = 0.0\nsamples = 1\nvalue = [0, 0, 0, 0, 0, 3, 0, 0, 0, 0]\nclass = Neil deGrasse Tyson", fillcolor="#399de5ff"] ;
526 -> 528 ;
529 [label="day_of_year <= 122.5\ngini = 0.6\nsamples = 144\nvalue = [0, 7, 4, 0, 54, 17, 131, 0, 0, 14]\nclass = Sebastian Ruder", fillcolor="#3c39e571"] ;
521 -> 529 ;
530 [label="year <= 2018.5\ngini = 0.7\nsamples = 37\nvalue = [0, 3, 0, 0, 29, 9, 13, 0, 0, 8]\nclass = KATY PERRY", fillcolor="#39e5c553"] ;
529 -> 530 ;
531 [label="day_of_year <= 72.0\ngini = 0.42\nsamples = 6\nvalue = [0, 0, 0, 0, 0, 3, 0, 0, 0, 7]\nclass = Kim Kardashian West", fillcolor="#e5395892"] ;
530 -> 531 ;
532 [label="gini = 0.0\nsamples = 4\nvalue = [0, 0, 0, 0, 0, 0, 0, 0, 0, 7]\nclass = Kim Kardashian West", fillcolor="#e53958ff"] ;
531 -> 532 ;
533 [label="gini = 0.0\nsamples = 2\nvalue = [0, 0, 0, 0, 0, 3, 0, 0, 0, 0]\nclass = Neil deGrasse Tyson", fillcolor="#399de5ff"] ;
531 -> 533 ;
534 [label="unique_ratio <= 0.22\ngini = 0.61\nsamples = 31\nvalue = [0, 3, 0, 0, 29, 6, 13, 0, 0, 1]\nclass = KATY PERRY", fillcolor="#39e5c569"] ;
530 -> 534 ;
535 [label="word_count <= 16.5\ngini = 0.53\nsamples = 20\nvalue = [0, 3, 0, 0, 24, 6, 4, 0, 0, 0]\nclass = KATY PERRY", fillcolor="#39e5c594"] ;
534 -> 535 ;
536 [label="gini = 0.4\nsamples = 16\nvalue = [0, 0, 0, 0, 24, 6, 2, 0, 0, 0]\nclass = KATY PERRY", fillcolor="#39e5c5b1"] ;
535 -> 536 ;
537 [label="gini = 0.48\nsamples = 4\nvalue = [0, 3, 0, 0, 0, 0, 2, 0, 0, 0]\nclass = Cristiano Ronaldo", fillcolor="#e2e53955"] ;
535 -> 537 ;
538 [label="unique_ratio <= 0.24\ngini = 0.52\nsamples = 11\nvalue = [0, 0, 0, 0, 5, 0, 9, 0, 0, 1]\nclass = Sebastian Ruder", fillcolor="#3c39e566"] ;
534 -> 538 ;
539 [label="gini = 0.32\nsamples = 7\nvalue = [0, 0, 0, 0, 2, 0, 8, 0, 0, 0]\nclass = Sebastian Ruder", fillcolor="#3c39e5bf"] ;
538 -> 539 ;
540 [label="gini = 0.56\nsamples = 4\nvalue = [0, 0, 0, 0, 3, 0, 1, 0, 0, 1]\nclass = KATY PERRY", fillcolor="#39e5c57f"] ;
538 -> 540 ;
541 [label="punc_ratio <= 0.06\ngini = 0.46\nsamples = 107\nvalue = [0, 4, 4, 0, 25, 8, 118, 0, 0, 6]\nclass = Sebastian Ruder", fillcolor="#3c39e5a9"] ;
529 -> 541 ;
542 [label="day_of_year <= 341.5\ngini = 0.44\nsamples = 105\nvalue = [0, 4, 4, 0, 25, 7, 118, 0, 0, 4]\nclass = Sebastian Ruder", fillcolor="#3c39e5ad"] ;
541 -> 542 ;
543 [label="punc_ratio <= 0.04\ngini = 0.42\nsamples = 102\nvalue = [0, 4, 4, 0, 23, 7, 118, 0, 0, 3]\nclass = Sebastian Ruder", fillcolor="#3c39e5b2"] ;
542 -> 543 ;
544 [label="gini = 0.31\nsamples = 61\nvalue = [0, 2, 1, 0, 10, 2, 83, 0, 0, 3]\nclass = Sebastian Ruder", fillcolor="#3c39e5cd"] ;
543 -> 544 ;
545 [label="gini = 0.57\nsamples = 41\nvalue = [0, 2, 3, 0, 13, 5, 35, 0, 0, 0]\nclass = Sebastian Ruder", fillcolor="#3c39e57d"] ;
543 -> 545 ;
546 [label="punc_ratio <= 0.03\ngini = 0.44\nsamples = 3\nvalue = [0, 0, 0, 0, 2, 0, 0, 0, 0, 1]\nclass = KATY PERRY", fillcolor="#39e5c57f"] ;
542 -> 546 ;
547 [label="gini = 0.0\nsamples = 1\nvalue = [0, 0, 0, 0, 0, 0, 0, 0, 0, 1]\nclass = Kim Kardashian West", fillcolor="#e53958ff"] ;
546 -> 547 ;
548 [label="gini = 0.0\nsamples = 2\nvalue = [0, 0, 0, 0, 2, 0, 0, 0, 0, 0]\nclass = KATY PERRY", fillcolor="#39e5c5ff"] ;
546 -> 548 ;
549 [label="day_of_year <= 201.5\ngini = 0.44\nsamples = 2\nvalue = [0, 0, 0, 0, 0, 1, 0, 0, 0, 2]\nclass = Kim Kardashian West", fillcolor="#e539587f"] ;
541 -> 549 ;
550 [label="gini = 0.0\nsamples = 1\nvalue = [0, 0, 0, 0, 0, 0, 0, 0, 0, 2]\nclass = Kim Kardashian West", fillcolor="#e53958ff"] ;
549 -> 550 ;
551 [label="gini = 0.0\nsamples = 1\nvalue = [0, 0, 0, 0, 0, 1, 0, 0, 0, 0]\nclass = Neil deGrasse Tyson", fillcolor="#399de5ff"] ;
549 -> 551 ;
552 [label="year <= 2016.5\ngini = 0.85\nsamples = 8964\nvalue = [2473, 1663, 7, 2229, 0, 663, 53, 2379, 2416, 2205]\nclass = Neil deGrasse Tyson", fillcolor="#e5813901"] ;
0 -> 552 [labeldistance=2.5, labelangle=-45, headlabel="False"] ;
553 [label="source <= 3.5\ngini = 0.71\nsamples = 3965\nvalue = [2439, 1600, 0, 0, 0, 69, 0, 1549, 615, 0]\nclass = Neil deGrasse Tyson", fillcolor="#e581392e"] ;
552 -> 553 ;
554 [label="year <= 2013.5\ngini = 0.45\nsamples = 2136\nvalue = [2439, 727, 0, 0, 0, 21, 0, 54, 194, 0]\nclass = Neil deGrasse Tyson", fillcolor="#e58139a1"] ;
553 -> 554 ;
555 [label="unique_ratio <= 0.16\ngini = 0.09\nsamples = 226\nvalue = [0, 346, 0, 0, 0, 0, 0, 17, 0, 0]\nclass = Cristiano Ronaldo", fillcolor="#e2e539f2"] ;
554 -> 555 ;
556 [label="gini = 0.0\nsamples = 1\nvalue = [0, 0, 0, 0, 0, 0, 0, 2, 0, 0]\nclass = Kim Kardashian West", fillcolor="#a339e5ff"] ;
555 -> 556 ;
557 [label="unique_ratio <= 0.21\ngini = 0.08\nsamples = 225\nvalue = [0, 346, 0, 0, 0, 0, 0, 15, 0, 0]\nclass = Cristiano Ronaldo", fillcolor="#e2e539f4"] ;
555 -> 557 ;
558 [label="punc_ratio <= 0.04\ngini = 0.3\nsamples = 34\nvalue = [0, 39, 0, 0, 0, 0, 0, 9, 0, 0]\nclass = Cristiano Ronaldo", fillcolor="#e2e539c4"] ;
557 -> 558 ;
559 [label="day_of_year <= 129.0\ngini = 0.18\nsamples = 30\nvalue = [0, 37, 0, 0, 0, 0, 0, 4, 0, 0]\nclass = Cristiano Ronaldo", fillcolor="#e2e539e3"] ;
558 -> 559 ;
560 [label="word_count <= 10.5\ngini = 0.44\nsamples = 10\nvalue = [0, 8, 0, 0, 0, 0, 0, 4, 0, 0]\nclass = Cristiano Ronaldo", fillcolor="#e2e5397f"] ;
559 -> 560 ;
561 [label="day_of_year <= 23.5\ngini = 0.32\nsamples = 4\nvalue = [0, 1, 0, 0, 0, 0, 0, 4, 0, 0]\nclass = Kim Kardashian West", fillcolor="#a339e5bf"] ;
560 -> 561 ;
562 [label="gini = 0.0\nsamples = 1\nvalue = [0, 1, 0, 0, 0, 0, 0, 0, 0, 0]\nclass = Cristiano Ronaldo", fillcolor="#e2e539ff"] ;
561 -> 562 ;
563 [label="gini = 0.0\nsamples = 3\nvalue = [0, 0, 0, 0, 0, 0, 0, 4, 0, 0]\nclass = Kim Kardashian West", fillcolor="#a339e5ff"] ;
561 -> 563 ;
564 [label="gini = 0.0\nsamples = 6\nvalue = [0, 7, 0, 0, 0, 0, 0, 0, 0, 0]\nclass = Cristiano Ronaldo", fillcolor="#e2e539ff"] ;
560 -> 564 ;
565 [label="gini = 0.0\nsamples = 20\nvalue = [0, 29, 0, 0, 0, 0, 0, 0, 0, 0]\nclass = Cristiano Ronaldo", fillcolor="#e2e539ff"] ;
559 -> 565 ;
566 [label="word_count <= 13.5\ngini = 0.41\nsamples = 4\nvalue = [0, 2, 0, 0, 0, 0, 0, 5, 0, 0]\nclass = Kim Kardashian West", fillcolor="#a339e599"] ;
558 -> 566 ;
567 [label="year <= 2012.5\ngini = 0.28\nsamples = 3\nvalue = [0, 1, 0, 0, 0, 0, 0, 5, 0, 0]\nclass = Kim Kardashian West", fillcolor="#a339e5cc"] ;
566 -> 567 ;
568 [label="gini = 0.0\nsamples = 1\nvalue = [0, 1, 0, 0, 0, 0, 0, 0, 0, 0]\nclass = Cristiano Ronaldo", fillcolor="#e2e539ff"] ;
567 -> 568 ;
569 [label="gini = 0.0\nsamples = 2\nvalue = [0, 0, 0, 0, 0, 0, 0, 5, 0, 0]\nclass = Kim Kardashian West", fillcolor="#a339e5ff"] ;
567 -> 569 ;
570 [label="gini = 0.0\nsamples = 1\nvalue = [0, 1, 0, 0, 0, 0, 0, 0, 0, 0]\nclass = Cristiano Ronaldo", fillcolor="#e2e539ff"] ;
566 -> 570 ;
571 [label="day_of_year <= 9.0\ngini = 0.04\nsamples = 191\nvalue = [0, 307, 0, 0, 0, 0, 0, 6, 0, 0]\nclass = Cristiano Ronaldo", fillcolor="#e2e539fa"] ;
557 -> 571 ;
572 [label="day_of_year <= 5.5\ngini = 0.41\nsamples = 5\nvalue = [0, 5, 0, 0, 0, 0, 0, 2, 0, 0]\nclass = Cristiano Ronaldo", fillcolor="#e2e53999"] ;
571 -> 572 ;
573 [label="gini = 0.0\nsamples = 4\nvalue = [0, 5, 0, 0, 0, 0, 0, 0, 0, 0]\nclass = Cristiano Ronaldo", fillcolor="#e2e539ff"] ;
572 -> 573 ;
574 [label="gini = 0.0\nsamples = 1\nvalue = [0, 0, 0, 0, 0, 0, 0, 2, 0, 0]\nclass = Kim Kardashian West", fillcolor="#a339e5ff"] ;
572 -> 574 ;
575 [label="day_of_year <= 362.5\ngini = 0.03\nsamples = 186\nvalue = [0, 302, 0, 0, 0, 0, 0, 4, 0, 0]\nclass = Cristiano Ronaldo", fillcolor="#e2e539fc"] ;
571 -> 575 ;
576 [label="day_of_year <= 72.0\ngini = 0.01\nsamples = 172\nvalue = [0, 283, 0, 0, 0, 0, 0, 2, 0, 0]\nclass = Cristiano Ronaldo", fillcolor="#e2e539fd"] ;
575 -> 576 ;
577 [label="day_of_year <= 68.0\ngini = 0.14\nsamples = 16\nvalue = [0, 24, 0, 0, 0, 0, 0, 2, 0, 0]\nclass = Cristiano Ronaldo", fillcolor="#e2e539ea"] ;
576 -> 577 ;
578 [label="gini = 0.08\nsamples = 15\nvalue = [0, 24, 0, 0, 0, 0, 0, 1, 0, 0]\nclass = Cristiano Ronaldo", fillcolor="#e2e539f4"] ;
577 -> 578 ;
579 [label="gini = 0.0\nsamples = 1\nvalue = [0, 0, 0, 0, 0, 0, 0, 1, 0, 0]\nclass = Kim Kardashian West", fillcolor="#a339e5ff"] ;
577 -> 579 ;
580 [label="gini = 0.0\nsamples = 156\nvalue = [0, 259, 0, 0, 0, 0, 0, 0, 0, 0]\nclass = Cristiano Ronaldo", fillcolor="#e2e539ff"] ;
576 -> 580 ;
581 [label="year <= 2012.5\ngini = 0.17\nsamples = 14\nvalue = [0, 19, 0, 0, 0, 0, 0, 2, 0, 0]\nclass = Cristiano Ronaldo", fillcolor="#e2e539e4"] ;
575 -> 581 ;
582 [label="gini = 0.0\nsamples = 13\nvalue = [0, 19, 0, 0, 0, 0, 0, 0, 0, 0]\nclass = Cristiano Ronaldo", fillcolor="#e2e539ff"] ;
581 -> 582 ;
583 [label="gini = 0.0\nsamples = 1\nvalue = [0, 0, 0, 0, 0, 0, 0, 2, 0, 0]\nclass = Kim Kardashian West", fillcolor="#a339e5ff"] ;
581 -> 583 ;
584 [label="year <= 2014.5\ngini = 0.35\nsamples = 1910\nvalue = [2439, 381, 0, 0, 0, 21, 0, 37, 194, 0]\nclass = Neil deGrasse Tyson", fillcolor="#e58139c3"] ;
554 -> 584 ;
585 [label="day_of_year <= 264.5\ngini = 0.52\nsamples = 396\nvalue = [364, 254, 0, 0, 0, 0, 0, 9, 16, 0]\nclass = Neil deGrasse Tyson", fillcolor="#e5813948"] ;
584 -> 585 ;
586 [label="unique_ratio <= 0.18\ngini = 0.06\nsamples = 141\nvalue = [0, 228, 0, 0, 0, 0, 0, 7, 0, 0]\nclass = Cristiano Ronaldo", fillcolor="#e2e539f7"] ;
585 -> 586 ;
587 [label="day_of_year <= 133.5\ngini = 0.36\nsamples = 9\nvalue = [0, 10, 0, 0, 0, 0, 0, 3, 0, 0]\nclass = Cristiano Ronaldo", fillcolor="#e2e539b3"] ;
586 -> 587 ;
588 [label="gini = 0.0\nsamples = 6\nvalue = [0, 9, 0, 0, 0, 0, 0, 0, 0, 0]\nclass = Cristiano Ronaldo", fillcolor="#e2e539ff"] ;
587 -> 588 ;
589 [label="unique_ratio <= 0.16\ngini = 0.38\nsamples = 3\nvalue = [0, 1, 0, 0, 0, 0, 0, 3, 0, 0]\nclass = Kim Kardashian West", fillcolor="#a339e5aa"] ;
587 -> 589 ;
590 [label="gini = 0.0\nsamples = 1\nvalue = [0, 1, 0, 0, 0, 0, 0, 0, 0, 0]\nclass = Cristiano Ronaldo", fillcolor="#e2e539ff"] ;
589 -> 590 ;
591 [label="gini = 0.0\nsamples = 2\nvalue = [0, 0, 0, 0, 0, 0, 0, 3, 0, 0]\nclass = Kim Kardashian West", fillcolor="#a339e5ff"] ;
589 -> 591 ;
592 [label="day_of_year <= 12.5\ngini = 0.04\nsamples = 132\nvalue = [0, 218, 0, 0, 0, 0, 0, 4, 0, 0]\nclass = Cristiano Ronaldo", fillcolor="#e2e539fa"] ;
586 -> 592 ;
593 [label="unique_ratio <= 0.29\ngini = 0.3\nsamples = 6\nvalue = [0, 9, 0, 0, 0, 0, 0, 2, 0, 0]\nclass = Cristiano Ronaldo", fillcolor="#e2e539c6"] ;
592 -> 593 ;
594 [label="gini = 0.0\nsamples = 1\nvalue = [0, 0, 0, 0, 0, 0, 0, 2, 0, 0]\nclass = Kim Kardashian West", fillcolor="#a339e5ff"] ;
593 -> 594 ;
595 [label="gini = 0.0\nsamples = 5\nvalue = [0, 9, 0, 0, 0, 0, 0, 0, 0, 0]\nclass = Cristiano Ronaldo", fillcolor="#e2e539ff"] ;
593 -> 595 ;
596 [label="punc_count <= 5.5\ngini = 0.02\nsamples = 126\nvalue = [0, 209, 0, 0, 0, 0, 0, 2, 0, 0]\nclass = Cristiano Ronaldo", fillcolor="#e2e539fd"] ;
592 -> 596 ;
597 [label="gini = 0.0\nsamples = 107\nvalue = [0, 179, 0, 0, 0, 0, 0, 0, 0, 0]\nclass = Cristiano Ronaldo", fillcolor="#e2e539ff"] ;
596 -> 597 ;
598 [label="unique_ratio <= 0.21\ngini = 0.12\nsamples = 19\nvalue = [0, 30, 0, 0, 0, 0, 0, 2, 0, 0]\nclass = Cristiano Ronaldo", fillcolor="#e2e539ee"] ;
596 -> 598 ;
599 [label="gini = 0.44\nsamples = 5\nvalue = [0, 4, 0, 0, 0, 0, 0, 2, 0, 0]\nclass = Cristiano Ronaldo", fillcolor="#e2e5397f"] ;
598 -> 599 ;
600 [label="gini = 0.0\nsamples = 14\nvalue = [0, 26, 0, 0, 0, 0, 0, 0, 0, 0]\nclass = Cristiano Ronaldo", fillcolor="#e2e539ff"] ;
598 -> 600 ;
601 [label="day_of_year <= 273.5\ngini = 0.2\nsamples = 255\nvalue = [364, 26, 0, 0, 0, 0, 0, 2, 16, 0]\nclass = Neil deGrasse Tyson", fillcolor="#e58139e2"] ;
585 -> 601 ;
602 [label="gini = 0.0\nsamples = 3\nvalue = [0, 0, 0, 0, 0, 0, 0, 0, 3, 0]\nclass = Kim Kardashian West", fillcolor="#e539c0ff"] ;
601 -> 602 ;
603 [label="punc_count <= 1.5\ngini = 0.19\nsamples = 252\nvalue = [364, 26, 0, 0, 0, 0, 0, 2, 13, 0]\nclass = Neil deGrasse Tyson", fillcolor="#e58139e3"] ;
601 -> 603 ;
604 [label="punc_count <= 0.5\ngini = 0.44\nsamples = 2\nvalue = [1, 2, 0, 0, 0, 0, 0, 0, 0, 0]\nclass = Cristiano Ronaldo", fillcolor="#e2e5397f"] ;
603 -> 604 ;
605 [label="gini = 0.0\nsamples = 1\nvalue = [1, 0, 0, 0, 0, 0, 0, 0, 0, 0]\nclass = Neil deGrasse Tyson", fillcolor="#e58139ff"] ;
604 -> 605 ;
606 [label="gini = 0.0\nsamples = 1\nvalue = [0, 2, 0, 0, 0, 0, 0, 0, 0, 0]\nclass = Cristiano Ronaldo", fillcolor="#e2e539ff"] ;
604 -> 606 ;
607 [label="word_count <= 15.5\ngini = 0.18\nsamples = 250\nvalue = [363, 24, 0, 0, 0, 0, 0, 2, 13, 0]\nclass = Neil deGrasse Tyson", fillcolor="#e58139e5"] ;
603 -> 607 ;
608 [label="day_of_year <= 310.5\ngini = 0.18\nsamples = 249\nvalue = [363, 24, 0, 0, 0, 0, 0, 2, 12, 0]\nclass = Neil deGrasse Tyson", fillcolor="#e58139e5"] ;
607 -> 608 ;
609 [label="gini = 0.29\nsamples = 80\nvalue = [107, 9, 0, 0, 0, 0, 0, 2, 10, 0]\nclass = Neil deGrasse Tyson", fillcolor="#e58139d2"] ;
608 -> 609 ;
610 [label="gini = 0.12\nsamples = 169\nvalue = [256, 15, 0, 0, 0, 0, 0, 0, 2, 0]\nclass = Neil deGrasse Tyson", fillcolor="#e58139ee"] ;
608 -> 610 ;
611 [label="gini = 0.0\nsamples = 1\nvalue = [0, 0, 0, 0, 0, 0, 0, 0, 1, 0]\nclass = Kim Kardashian West", fillcolor="#e539c0ff"] ;
607 -> 611 ;
612 [label="has_mentions <= 0.5\ngini = 0.26\nsamples = 1514\nvalue = [2075, 127, 0, 0, 0, 21, 0, 28, 178, 0]\nclass = Neil deGrasse Tyson", fillcolor="#e58139d7"] ;
584 -> 612 ;
613 [label="punc_ratio <= 0.13\ngini = 0.15\nsamples = 1126\nvalue = [1660, 68, 0, 0, 0, 3, 0, 18, 50, 0]\nclass = Neil deGrasse Tyson", fillcolor="#e58139eb"] ;
612 -> 613 ;
614 [label="punc_count <= 7.5\ngini = 0.14\nsamples = 1125\nvalue = [1660, 68, 0, 0, 0, 3, 0, 18, 48, 0]\nclass = Neil deGrasse Tyson", fillcolor="#e58139eb"] ;
613 -> 614 ;
615 [label="unique_ratio <= 0.41\ngini = 0.14\nsamples = 1122\nvalue = [1660, 68, 0, 0, 0, 3, 0, 18, 45, 0]\nclass = Neil deGrasse Tyson", fillcolor="#e58139eb"] ;
614 -> 615 ;
616 [label="day_of_year <= 320.5\ngini = 0.13\nsamples = 1088\nvalue = [1620, 59, 0, 0, 0, 3, 0, 15, 43, 0]\nclass = Neil deGrasse Tyson", fillcolor="#e58139ed"] ;
615 -> 616 ;
617 [label="gini = 0.12\nsamples = 1007\nvalue = [1512, 48, 0, 0, 0, 3, 0, 8, 40, 0]\nclass = Neil deGrasse Tyson", fillcolor="#e58139ef"] ;
616 -> 617 ;
618 [label="gini = 0.29\nsamples = 81\nvalue = [108, 11, 0, 0, 0, 0, 0, 7, 3, 0]\nclass = Neil deGrasse Tyson", fillcolor="#e58139d2"] ;
616 -> 618 ;
619 [label="punc_ratio <= 0.06\ngini = 0.42\nsamples = 34\nvalue = [40, 9, 0, 0, 0, 0, 0, 3, 2, 0]\nclass = Neil deGrasse Tyson", fillcolor="#e58139b0"] ;
615 -> 619 ;
620 [label="gini = 0.24\nsamples = 4\nvalue = [1, 6, 0, 0, 0, 0, 0, 0, 0, 0]\nclass = Cristiano Ronaldo", fillcolor="#e2e539d4"] ;
619 -> 620 ;
621 [label="gini = 0.3\nsamples = 30\nvalue = [39, 3, 0, 0, 0, 0, 0, 3, 2, 0]\nclass = Neil deGrasse Tyson", fillcolor="#e58139d1"] ;
619 -> 621 ;
622 [label="gini = 0.0\nsamples = 3\nvalue = [0, 0, 0, 0, 0, 0, 0, 0, 3, 0]\nclass = Kim Kardashian West", fillcolor="#e539c0ff"] ;
614 -> 622 ;
623 [label="gini = 0.0\nsamples = 1\nvalue = [0, 0, 0, 0, 0, 0, 0, 0, 2, 0]\nclass = Kim Kardashian West", fillcolor="#e539c0ff"] ;
613 -> 623 ;
624 [label="punc_count <= 5.5\ngini = 0.51\nsamples = 388\nvalue = [415, 59, 0, 0, 0, 18, 0, 10, 128, 0]\nclass = Neil deGrasse Tyson", fillcolor="#e5813992"] ;
612 -> 624 ;
625 [label="word_count <= 1.5\ngini = 0.44\nsamples = 292\nvalue = [341, 42, 0, 0, 0, 16, 0, 8, 62, 0]\nclass = Neil deGrasse Tyson", fillcolor="#e58139af"] ;
624 -> 625 ;
626 [label="day_of_year <= 220.0\ngini = 0.35\nsamples = 112\nvalue = [128, 10, 0, 0, 0, 16, 0, 0, 7, 0]\nclass = Neil deGrasse Tyson", fillcolor="#e58139c5"] ;
625 -> 626 ;
627 [label="day_of_year <= 203.5\ngini = 0.49\nsamples = 74\nvalue = [73, 10, 0, 0, 0, 16, 0, 0, 7, 0]\nclass = Neil deGrasse Tyson", fillcolor="#e58139a1"] ;
626 -> 627 ;
628 [label="gini = 0.32\nsamples = 67\nvalue = [73, 10, 0, 0, 0, 0, 0, 0, 7, 0]\nclass = Neil deGrasse Tyson", fillcolor="#e58139c9"] ;
627 -> 628 ;
629 [label="gini = 0.0\nsamples = 7\nvalue = [0, 0, 0, 0, 0, 16, 0, 0, 0, 0]\nclass = Neil deGrasse Tyson", fillcolor="#399de5ff"] ;
627 -> 629 ;
630 [label="gini = 0.0\nsamples = 38\nvalue = [55, 0, 0, 0, 0, 0, 0, 0, 0, 0]\nclass = Neil deGrasse Tyson", fillcolor="#e58139ff"] ;
626 -> 630 ;
631 [label="word_count <= 7.5\ngini = 0.48\nsamples = 180\nvalue = [213, 32, 0, 0, 0, 0, 0, 8, 55, 0]\nclass = Neil deGrasse Tyson", fillcolor="#e581399f"] ;
625 -> 631 ;
632 [label="unique_ratio <= 0.6\ngini = 0.61\nsamples = 38\nvalue = [31, 10, 0, 0, 0, 0, 0, 0, 22, 0]\nclass = Neil deGrasse Tyson", fillcolor="#e5813938"] ;
631 -> 632 ;
633 [label="gini = 0.65\nsamples = 27\nvalue = [15, 10, 0, 0, 0, 0, 0, 0, 19, 0]\nclass = Kim Kardashian West", fillcolor="#e539c023"] ;
632 -> 633 ;
634 [label="gini = 0.27\nsamples = 11\nvalue = [16, 0, 0, 0, 0, 0, 0, 0, 3, 0]\nclass = Neil deGrasse Tyson", fillcolor="#e58139cf"] ;
632 -> 634 ;
635 [label="unique_ratio <= 0.19\ngini = 0.42\nsamples = 142\nvalue = [182, 22, 0, 0, 0, 0, 0, 8, 33, 0]\nclass = Neil deGrasse Tyson", fillcolor="#e58139b3"] ;
631 -> 635 ;
636 [label="gini = 0.6\nsamples = 19\nvalue = [19, 0, 0, 0, 0, 0, 0, 5, 15, 0]\nclass = Neil deGrasse Tyson", fillcolor="#e581392a"] ;
635 -> 636 ;
637 [label="gini = 0.35\nsamples = 123\nvalue = [163, 22, 0, 0, 0, 0, 0, 3, 18, 0]\nclass = Neil deGrasse Tyson", fillcolor="#e58139c3"] ;
635 -> 637 ;
638 [label="day_of_year <= 135.0\ngini = 0.61\nsamples = 96\nvalue = [74, 17, 0, 0, 0, 2, 0, 2, 66, 0]\nclass = Neil deGrasse Tyson", fillcolor="#e5813915"] ;
624 -> 638 ;
639 [label="punc_ratio <= 0.06\ngini = 0.57\nsamples = 56\nvalue = [38, 10, 0, 0, 0, 0, 0, 0, 55, 0]\nclass = Kim Kardashian West", fillcolor="#e539c043"] ;
638 -> 639 ;
640 [label="unique_ratio <= 0.18\ngini = 0.57\nsamples = 38\nvalue = [35, 6, 0, 0, 0, 0, 0, 0, 29, 0]\nclass = Neil deGrasse Tyson", fillcolor="#e5813925"] ;
639 -> 640 ;
641 [label="gini = 0.0\nsamples = 3\nvalue = [0, 0, 0, 0, 0, 0, 0, 0, 8, 0]\nclass = Kim Kardashian West", fillcolor="#e539c0ff"] ;
640 -> 641 ;
642 [label="gini = 0.56\nsamples = 35\nvalue = [35, 6, 0, 0, 0, 0, 0, 0, 21, 0]\nclass = Neil deGrasse Tyson", fillcolor="#e5813957"] ;
